清朝 -0.305818 -0.52971 -0.0694281 -0.0896422 0.607265 -0.84591 0.17616 0.127347 0.920845 -0.35364 -1.05668 0.08365 -0.20769 0.188129 0.305751 -0.175297 0.022266 0.487308 -0.260896 0.702555 -0.606695 -0.0923809 -0.330108 -0.319447 -0.129373 0.0957116 -0.649881 0.224406 -0.0897417 0.195792 -0.184773 -0.282377 0.48352 -0.0180009 0.180506 -0.621238 0.385551 -0.813942 -0.606553 0.530681 0.513623 -0.511323 -0.268434 0.177716 -0.206693 -0.163362 0.120791 0.100666 -0.270394 0.443555 0.000372142 -0.29366 -0.387245 -0.257502 -0.268923 0.0887851 -0.308216 -0.244752 -0.320061 0.781287 -0.336414 0.0397674 -0.739863 -0.496148 0.172742 -0.125913 -0.219461 -0.0414457 -0.0416419 0.902972 -0.850104 -0.148579 0.364682 -0.274295 -0.115671 0.0543529 -0.232381 0.378216 0.172377 0.2203 0.171137 -0.805453 0.14654 -0.0445523 0.61921 0.592039 1.05122 -0.161143 0.71896 0.740831 0.293091 -0.330612 -0.739699 0.22615 -0.156296 0.107908 0.546221 0.35896 0.077016 0.587952 0.00587416 -0.216853 0.253361 0.85033 1.1167 -0.236281 0.306636 0.202006 -0.0537486 -0.0247523 -0.0610856 -0.16085 0.265621 -0.500123 0.442599 -0.0148968 0.217641 0.420802 -0.0199824 -0.501818 0.38091 -0.69293 -0.410515 0.0621521 -0.00845847 0.0080692 -0.146867 0.112448 0.0703321 0.614187 0.104667 0.609021 -0.142415 0.324576 0.289512 0.187432 -0.0852815 -0.0729249 0.0660363 0.0104144 0.414191 0.328157 -0.318937 0.0236456 -0.257824 -0.312055 -0.322406 0.00477861 -0.175263 -0.319369
錢包 0.206238 -0.401748 0.544608 0.0739079 0.00128809 0.0866323 0.39816 0.299215 -0.0789039 0.115131 0.178549 0.17454 -0.170511 -0.202536 -0.124357 -0.792379 -0.451682 -0.212853 0.713223 -0.114319 -0.064631 -0.603168 0.487442 -1.0569 0.367375 -0.350718 0.152432 0.29652 -0.628631 -0.362362 0.133445 -0.456191 -0.817127 -0.192614 0.0819353 -0.0659203 0.331892 -0.231172 -0.258495 -0.414559 0.462284 -0.010563 0.373673 -0.815343 0.597871 -0.0949881 -0.375907 -0.306005 0.357853 0.176243 -0.164352 0.0022362 -0.832696 0.0481802 0.750527 -0.0869704 0.322432 -0.339564 0.436452 0.806622 -0.4325 0.111882 0.481739 -0.030891 0.529538 0.216382 0.345425 0.844753 0.0450295 -0.220625 0.13456 -0.103521 0.231034 -0.971775 0.243264 -0.02751 0.377405 -0.357129 -0.944135 -0.0895769 -0.106069 -1.07859 0.0355854 0.754476 0.772065 -0.397409 0.2335 0.325384 -0.386885 0.536604 -0.000977047 0.129962 0.0173647 -0.364581 0.568119 0.455573 -0.408438 0.0853968 0.0920637 -0.0651383 -0.0416981 -1.08237 -0.00588529 0.09927 0.368943 0.610746 -0.247201 -0.906547 -0.138191 -0.841713 -0.285731 0.178431 0.194252 0.203196 -0.244701 -0.0923205 -0.104718 -0.309097 -0.123629 0.192852 0.157807 -0.612743 -0.203997 -0.42741 -0.423046 -0.235463 -0.0374853 -0.726545 0.0503748 0.129784 -0.0129424 -0.526172 -0.580068 0.283439 0.0224939 0.508977 -0.0188049 -0.0258887 0.668483 -0.460432 -0.0247901 0.449428 0.146493 -0.482338 0.537107 0.366238 -0.556594 -0.265956 -0.450374 -0.141985
查拉圖斯特拉如是說 0.520883 -0.354183 0.258163 0.243727 1.01708 0.330745 0.487744 -0.0989383 -0.27249 0.0304267 -0.44535 0.0451974 0.514839 0.316612 0.0693113 -0.284775 0.377542 0.506544 -0.211887 0.269972 -0.300328 0.684221 -0.0950073 0.337106 -0.675662 0.272239 0.278025 0.0156209 -0.164254 0.366209 0.382573 -0.0532849 0.451442 0.455106 -0.175525 0.168066 0.265021 0.330119 -0.642237 0.0379876 0.126858 -0.465196 0.355793 0.636179 0.519871 0.00771547 -0.273484 0.189647 0.433444 -0.308219 0.459349 0.00473339 0.170225 0.0320341 0.179522 -0.290812 -0.0529684 -0.723314 0.175547 0.0298132 -0.147068 0.285194 -0.0490587 0.746887 -0.442769 -0.360868 0.387124 -0.112718 -0.641999 -0.590181 -0.0441489 0.595846 -0.0674648 -0.329268 -0.533364 -0.398972 0.351551 -0.306681 0.0646453 -0.513938 -0.140243 0.371875 -0.374313 -0.0674455 -0.267168 0.351717 0.261568 0.279607 0.325544 -0.055198 0.243173 -0.272836 0.376909 0.10779 0.535096 -0.194446 0.315873 0.0917082 -0.193506 -0.380707 0.0704409 -0.0872813 -0.167084 0.265006 0.419661 -0.656296 -0.0571357 -0.483092 -0.251539 0.55085 0.0176487 -0.0915155 -0.471941 0.309383 0.326255 -0.00942909 -0.109189 0.0726176 -0.359372 0.183412 -0.915709 0.121087 0.402478 0.389461 -0.27776 0.253823 0.0933341 -0.492493 0.0447702 -0.645753 -0.384451 -0.400892 0.831414 -0.385108 0.0944636 -0.107679 0.0321991 -0.128269 0.264333 0.240796 -0.471746 0.0269215 0.0929771 0.254893 -0.361371 -0.0374564 0.309461 0.316721 -0.867925 0.0753793
屏幕 -0.458858 0.232959 0.172878 -0.39209 0.343099 0.681797 -0.446221 -0.437206 -0.00109938 -0.256879 0.0371381 -0.395487 0.330838 0.297092 0.477141 -0.33091 0.101623 0.136843 -0.266853 -0.467917 -0.242174 -0.302601 0.107213 0.420146 0.149624 0.256749 0.582332 -0.290327 -0.466526 -0.0068726 0.240296 0.295666 -0.133045 0.0934376 0.477611 -0.223542 -0.914248 0.267575 0.066025 -0.371204 0.141278 0.228076 0.0142759 0.302438 0.157343 -0.147042 -0.154384 0.108511 0.337249 -0.101313 0.0994975 -0.293854 0.398086 0.29542 -0.282821 -0.412612 -0.200195 -0.0240725 -0.123885 -0.0119061 0.241228 0.229205 -0.0801554 -0.4101 -0.371373 -0.252149 -0.193983 0.0423003 0.0908357 0.0159459 -0.0201615 0.396165 0.132679 0.0193485 -0.237501 -0.134624 0.104646 -0.144349 -0.0862881 -0.156409 -0.272615 -0.247076 0.229703 -0.00764208 -0.0955965 0.321537 0.207443 0.103475 0.0684073 -0.358515 -0.196833 0.132281 -0.0328155 -0.394204 0.11805 -0.305488 -0.0680633 -0.258208 0.308586 -0.187286 -0.239324 -0.420953 0.00671799 -0.0118639 0.488966 0.185178 0.0908324 -0.16163 -0.036334 0.195385 0.0130909 -0.167774 -0.0970166 -0.153446 -0.109183 0.0349851 -0.151552 0.0390113 0.245723 0.399577 -0.0457462 0.00115224 0.664038 -0.447539 0.117925 0.259985 -0.0710504 0.310321 -0.191104 -0.324516 0.31294 0.0306919 0.533237 -0.265653 0.272949 0.188569 0.0521049 0.570462 0.0561961 0.284269 0.215374 -0.246957 0.0606616 -0.00800549 -0.315766 0.377018 0.168476 -0.0814386 -0.197538 0.126443
圖片 -0.232031 -0.774617 0.551219 -0.259468 0.240211 0.482664 0.0543424 0.510585 -0.244595 0.113245 -0.598583 0.225086 0.170182 0.0678594 -0.305215 -0.221012 0.435107 0.164019 0.537388 -0.402292 0.484271 -1.47919 0.42929 -0.316596 -0.233891 0.0424385 0.0391644 0.695081 -0.081529 0.289456 0.291007 -0.106091 0.906134 0.0429106 -0.435548 0.300866 -0.254212 -0.216261 0.175966 -0.313993 -0.0667217 -0.480532 -0.0691651 -0.52073 0.205336 -0.858569 -0.0968389 -0.123605 -0.183208 -0.000202432 -0.132243 0.421025 -0.572982 -0.147145 -0.214732 -0.24946 -0.108148 -0.156765 -0.296086 -0.0615824 -0.394139 0.856372 -0.487517 -0.487524 0.421462 0.14933 -0.488074 0.0801413 0.526901 -0.535171 0.00714625 0.444786 -0.233131 0.352074 0.582956 0.512886 -0.0246824 -0.205055 -0.167821 0.465791 -0.826034 -0.000770517 0.373712 -0.421233 -0.304626 0.290303 -0.0795152 -0.35195 -0.368239 0.329616 0.234278 0.553443 0.688575 -0.405216 0.257014 0.0365179 0.130388 0.24522 0.902822 -0.303539 0.488965 -0.760703 -0.010314 0.637244 -0.142448 0.58651 -0.282666 0.16556 0.530082 0.266624 0.172967 -0.526319 0.52614 -0.188793 0.924011 -0.406318 0.128492 0.0799516 0.163229 0.294323 -0.468746 -0.569297 -0.0256382 0.505996 -0.36014 -0.0620796 -0.383855 -0.333066 0.249454 -0.85276 0.394483 -0.879186 0.536453 -0.237911 0.691742 -0.879706 0.0260669 0.595579 0.573009 -0.136774 -0.662966 0.1691 0.258977 -0.629577 -0.0374466 -0.0115528 -0.189486 -0.617083 0.0479704 -0.373545
聽 -0.173729 -0.140914 0.888492 0.580277 -0.524923 0.635044 -0.457457 0.061109 0.201464 -0.595603 -0.160247 0.324666 -0.443853 -0.747773 0.138789 0.532639 0.301168 0.644335 0.275969 -0.586988 0.759651 -0.574061 0.698751 0.762317 0.0927398 -0.0946106 -0.745202 -0.489244 0.464423 0.282282 -0.784738 -0.229534 0.651 -0.475671 1.23599 -0.168859 1.24455 -0.629018 0.222062 1.02593 0.0415864 0.663558 0.368802 0.430487 -0.203446 -0.427504 -0.135902 0.38931 -0.752414 0.024028 -0.416774 0.26582 0.50446 -0.144283 0.627725 0.54689 0.152295 0.152109 -0.41373 0.0777968 -0.113518 0.341504 -0.0427792 -0.799614 -0.509322 0.632029 -0.797612 0.101608 0.437207 0.4526 0.487367 0.532913 -0.00501632 0.413455 0.972758 -0.375687 -0.847306 1.0303 -0.474314 0.637098 0.27944 -0.0579062 0.320286 -0.410138 -0.0282478 -0.165527 -0.0622075 0.397083 0.352191 -0.13049 1.19467 0.407089 0.697565 0.0696086 -0.10509 -0.282066 -0.537025 -0.604146 0.556817 0.313193 0.891382 0.105372 0.185649 0.540727 -0.374915 -0.140108 -0.104705 0.0609601 -0.0740654 -0.533541 0.977901 0.110062 -0.0600657 0.419313 -0.122592 -0.550651 -0.0773311 0.105835 -0.0391878 -0.55377 -0.005953 -0.192069 -1.04831 -0.0467085 -0.628 -0.377708 -0.299096 0.0627787 -0.196066 -0.137852 0.466939 -0.454927 0.346066 -0.201303 -0.0225434 0.479306 0.487037 0.304766 -0.448325 0.247424 -0.377946 0.518276 -0.361088 0.387627 0.63162 -0.193141 -0.600156 0.0437108 0.423556 -0.371622
媽媽 -0.462655 0.272523 1.07896 0.311047 -0.201722 0.438539 0.0257966 -0.141772 -0.714886 -0.042648 0.556655 -0.196225 0.106538 -0.373951 -0.34389 0.534903 0.0689912 -0.170103 0.287626 -0.823634 -0.094125 0.180143 0.0945692 0.351266 0.890022 0.0413632 -0.414677 0.039539 0.153524 -0.0672891 -0.979158 -0.564288 -0.227705 -0.360427 0.301154 0.397273 0.857371 -0.0831199 -0.0519896 0.135941 0.268306 -0.00848747 0.818562 -0.57362 -0.42407 0.0240366 -0.0537451 -0.265417 -0.584407 0.436202 0.458032 0.111698 -0.383011 -0.206444 0.783257 0.710066 0.701657 0.265806 -0.131862 -0.203404 -0.559994 -0.0199236 -0.782403 -0.590474 0.441381 -0.0733718 -0.522956 0.128337 -0.0388724 0.33747 0.217835 0.585717 0.260693 0.430225 0.40075 0.858753 -0.0343595 0.136897 -0.676167 0.665125 -0.552105 -0.395701 0.235977 -0.0693834 -0.189849 -0.604131 0.703757 0.855447 0.559788 -0.464534 0.852527 0.27261 0.0766224 0.110002 -0.183782 -0.303526 -0.644893 -0.514705 -0.279096 0.479221 0.670697 0.0811514 -0.190679 0.100789 -0.589672 0.0364192 0.09575 -0.907004 0.0838057 -0.311103 0.436043 0.602676 0.136538 -0.0517468 -0.690057 -0.303305 -0.191716 -0.120095 -0.244245 0.028087 0.666895 0.301602 -0.639825 0.466019 -0.420111 -0.280379 -0.122763 -0.549252 0.0314197 -0.0628126 0.387928 -0.17702 -0.738615 -0.0632115 -0.0248687 -0.0168973 0.236918 0.360791 -0.862787 -0.426499 -0.702776 0.26505 -0.00452144 -0.157848 0.923998 -0.573557 -0.826113 -0.178225 -0.0265114 -0.878688
冷氣 0.531665 0.314928 -1.24027 -0.17769 -0.474767 -0.741338 0.492954 0.80099 -0.187713 -0.323401 -0.694216 0.534844 -0.938113 0.0589213 -0.549952 0.362797 0.0654313 0.0686059 0.645294 -0.831649 0.104768 -0.0344171 0.426009 -0.741887 0.469001 0.162492 0.127433 0.0853904 -0.133618 0.030022 0.333048 -0.472069 0.0554405 0.0969557 0.192626 0.0733244 0.0959679 -0.663227 0.379959 -0.00350954 0.179187 -0.237256 0.112096 -1.0119 -0.471287 -0.267147 -0.482149 -0.705449 -0.242696 0.900801 -0.514059 -0.637694 0.426841 -0.230216 -0.251686 -0.820488 0.347514 -0.458059 0.723845 0.481804 -0.675944 0.530655 0.00441118 -0.00972232 -0.690452 0.542612 -0.422305 -0.387644 -0.640897 -0.312043 -0.494549 0.102315 0.580967 0.299581 0.0439731 0.367508 -0.0270206 -0.3153 -0.688136 0.40966 -0.434156 -0.221788 0.0835492 -0.357393 0.715525 0.0933139 -0.153056 0.896059 0.0310297 0.241222 0.333853 0.0419114 0.163504 -0.157042 -0.0220696 -0.659557 -0.52272 -1.35636 0.409949 0.721763 0.264391 0.221581 -0.768998 0.218586 -0.459129 0.045693 -0.00269884 0.484045 -0.394812 0.365958 0.310298 -0.35408 0.113571 -0.0442855 -0.780092 0.355631 0.166843 -0.222767 0.378042 -0.0572029 0.164415 -0.540264 -0.310841 0.0543326 0.0585587 -0.636533 -1.04729 0.267542 0.00592538 -0.320288 0.160085 -0.750124 0.449083 0.266682 -0.216644 0.649081 -0.305222 -0.205004 0.129529 0.883316 -1.14921 0.121187 -0.399293 0.303462 -0.829829 -0.177984 0.196286 0.716931 -0.263401 -0.155857
二次元 -0.421657 -0.0189754 -0.119861 -0.0277852 -0.238553 -0.571547 0.725998 -0.767801 -0.907061 -0.327137 -0.109549 -0.275495 -0.000743959 0.250106 0.321559 -0.110539 -0.112204 -0.163163 -0.298881 0.194339 -0.912981 -0.0485863 -0.689103 0.37232 -0.526137 0.25188 0.685272 -0.212779 0.0590073 -0.578111 -0.0029929 0.179455 -0.00853413 0.471666 0.0520047 -0.431384 -0.0322538 -0.0725744 -0.128636 0.302446 0.136628 0.533725 -0.350035 -0.4059 0.64043 0.161249 -0.309038 0.0185901 -0.179488 0.120788 -0.379713 0.230514 -0.442397 0.15473 -0.747044 0.0662741 -0.314793 -0.213384 -0.27817 -0.340325 -0.13444 -0.165038 -0.139325 0.371333 -0.194137 0.21402 0.0673951 -0.168615 -0.172124 -0.212213 0.0439587 0.13258 0.888412 0.0886948 0.0542915 -0.218535 -0.0773145 0.0816775 -0.383613 0.20266 0.446117 0.0288006 0.481494 0.551199 -0.371684 -0.169914 0.0468744 -0.0430521 0.71522 -0.574903 -0.322988 -0.130085 0.0864518 -0.393367 -0.421391 -0.474753 -0.258671 0.0315452 0.244188 -0.209534 0.157672 0.108613 0.93727 -0.73533 0.339311 0.451039 -0.222575 -0.752363 0.438791 -0.311852 0.535585 -0.066022 0.261346 -0.00453225 0.0992258 -0.629081 -0.302197 0.680209 -0.0318306 0.758783 -0.04996 -0.377937 0.143473 0.229311 0.0143368 0.12307 -0.0643435 0.637952 0.517487 0.137872 -0.0586043 -0.0626949 -0.332568 -0.680086 0.258162 0.244789 -0.0729801 -0.162106 0.116989 0.0316331 -0.214233 -0.22835 0.194978 -0.786894 0.114868 0.218514 -0.107139 -0.411658 -0.103198 -0.131171
花媽 -0.14657 0.735377 0.140981 -0.48443 0.164794 0.270701 0.277381 0.649221 -0.930269 -0.0146817 0.00917229 0.482565 0.15661 -0.329926 -0.27286 0.493481 -0.131293 0.0667279 0.37808 -0.123734 -0.795458 0.00647367 -0.140406 0.401871 0.153901 -0.496831 0.384691 0.476193 0.0188887 0.00388755 -0.290642 0.375938 0.115676 -0.442691 0.419241 -0.12749 0.0268916 -0.26611 -0.683113 0.271512 -0.0147648 0.438133 -0.0963581 0.0381015 -0.585101 0.19699 -0.0131792 -0.376217 0.499804 0.393204 -0.772115 0.0449867 0.145281 -0.367043 0.405843 0.74804 0.576267 0.200006 -0.46373 -0.0313094 -0.0416484 0.452425 -0.184065 0.000963099 0.146339 0.125802 0.0590921 -0.125342 0.303504 0.0511028 -0.279321 0.171673 -0.310977 0.20843 -0.228992 0.215862 0.490758 0.261004 0.193639 0.0543422 0.472905 0.377716 -0.149844 -0.28091 0.148805 -0.809623 -0.107715 0.639422 -0.59336 -0.142779 -0.432501 -0.416956 -0.177264 -1.06706 -0.343774 0.395909 -0.642962 0.216187 0.106957 0.573464 0.0416026 -0.285978 0.370588 -0.0138656 -0.64747 0.377614 0.599528 0.227516 -0.193942 -0.596127 0.579082 -0.480654 0.379506 0.436277 0.213762 -0.525156 -0.00152937 0.0925806 0.485121 0.156173 0.409235 -0.15179 -0.54894 -0.222271 -0.0404965 -0.339906 -0.0185265 0.054636 0.476299 0.560201 0.0871368 0.570739 0.718499 0.144066 -0.177911 -0.489751 -0.0779909 0.461758 0.0553012 0.533752 -0.261681 -0.203044 -0.162274 -0.293643 0.0104375 -0.926632 0.391155 -0.229422 0.693911 0.503517
更衣室 0.0603583 -0.00964124 -0.324846 -0.341923 0.703229 -0.347093 -0.0707855 -0.54377 -0.054764 0.0898804 -0.465836 -0.280729 0.058455 0.364803 -0.036992 0.185969 -0.308854 -0.675501 0.292343 -0.24918 -0.0263678 -0.230643 0.0806312 -0.382054 0.111736 0.0534118 0.553108 -0.0876672 -0.44162 -0.451918 0.259079 0.0295177 0.238447 0.253446 0.326105 -0.0580291 0.039713 0.0740824 0.338565 -0.535936 -0.0980257 0.286929 0.103685 -0.158633 0.17916 0.820261 0.198441 -0.145013 -0.440412 0.592116 0.00539597 -0.0230235 -0.264509 -0.243166 0.356153 -0.241905 0.512553 -0.0106251 0.116901 -0.209312 0.421074 0.17136 0.222123 0.0925578 0.180489 -0.152216 0.524422 0.169445 -0.0837359 -0.581175 0.0943332 0.431268 0.246146 -0.300948 0.216146 0.0771172 0.219077 0.0234564 0.0762533 -0.219468 0.578266 -0.464294 0.461124 0.234756 0.339881 0.14626 -0.192147 0.0931706 -0.0887944 -0.00465581 -0.158202 -0.0630278 -0.52153 -0.305227 0.0166842 0.100779 0.691996 -0.143515 0.0670733 -0.00418664 -0.00315773 -0.0428966 -0.188364 -0.133346 -0.417534 -0.0271167 0.235727 -0.183489 0.277411 0.421443 -0.589146 -0.0432103 -0.378565 -0.445102 -0.565389 0.0695815 0.239762 -0.0616733 -0.0273147 0.552649 0.521212 0.0522479 -0.507139 0.166663 -0.0282498 -0.0937208 -0.0561167 0.0256047 -0.227345 -0.490572 -0.152352 -0.236351 0.213311 -0.0919775 -0.360731 -0.501411 -0.0769311 0.0559425 -0.325054 -0.0374361 -0.182583 0.408821 0.220482 0.157118 -0.135997 0.575168 0.142742 0.337854 -0.376541 -0.223661
宜蘭 0.151056 0.205623 -0.669289 -0.839268 0.339785 -0.199078 -0.379884 -0.468459 0.66899 -0.109099 0.043511 -0.467793 -0.0583683 -0.48048 -0.53897 -0.0694738 0.906973 0.050006 -0.052241 -0.191117 -0.17743 0.360191 0.0253271 0.180336 -0.215366 -0.443192 0.280332 -0.19101 0.791946 0.0611453 -0.706514 -0.149615 -0.462426 0.147608 0.0556697 0.418527 0.053757 0.253692 0.867757 0.863644 0.390497 -0.305611 -0.00237586 -0.407552 0.0225647 -0.587122 -0.837096 -0.383409 -0.272854 -0.000813693 0.0755889 0.247883 -0.521591 -0.280776 -0.0363721 0.292731 0.113617 -0.320989 -0.125278 -0.775334 -0.308277 0.771363 -0.0115563 -0.743058 -0.00644141 0.210494 -0.390842 0.0790341 -0.0342716 0.777541 0.390888 -0.320087 -0.578692 -0.222758 -0.207761 0.925969 0.530422 0.076796 -0.0438426 -0.0168142 0.429342 -0.138457 -0.686592 0.0194545 0.963395 -0.197445 0.139011 -0.103115 0.208281 0.537533 -0.100664 -0.261869 -0.669735 -0.305836 0.379799 0.0548555 -0.976856 0.545041 0.21362 -0.0724135 0.17109 0.414842 0.137502 0.0882525 0.167154 -0.650475 0.574358 0.262641 0.714263 -0.185866 0.25547 0.555921 0.120145 -0.64692 -0.307817 -0.86022 0.0557788 -0.152373 -0.175933 0.135484 0.75768 0.725747 0.43853 1.20975 -0.606819 -0.859165 0.152603 0.226731 0.3342 -0.584809 0.483402 0.685073 -0.176526 -0.0342278 -0.28311 -0.113188 -0.389525 -0.0203273 0.450989 0.0433159 0.222921 0.531205 0.799058 0.130158 0.616844 0.51961 -0.51417 -0.204821 0.0663589 0.466231
車子 -0.140155 0.562875 -0.328491 0.256165 0.0172566 -0.231562 0.0306033 0.709683 -0.0435162 0.000180908 0.090353 0.112938 -0.27734 -0.168147 0.00849301 -0.289232 -0.865105 -0.175029 0.748693 0.0598065 0.438482 -0.0960963 0.0418624 -1.16905 0.84946 -0.490644 0.208146 0.0887709 0.0868516 0.0819284 0.0248736 0.215892 0.0841351 0.0280553 -0.118331 -0.475533 0.350015 -0.502166 0.874683 0.246176 0.409314 0.233454 0.238268 -0.549331 -0.395941 -0.203466 0.0434449 -0.322887 -0.245995 0.0315571 0.117773 -0.174904 -0.0932877 -0.187793 0.537005 0.414009 -0.184304 0.0155202 -0.518182 0.264613 -0.232172 -0.086 -0.336343 -0.33082 -0.0261834 0.838375 0.148729 0.56866 -0.357104 -0.427988 0.528314 0.930915 0.176617 -0.69943 0.0158358 0.320371 -0.328725 0.416852 -0.412618 -0.146762 0.0398286 -0.696699 0.516619 -0.0620611 0.551292 -0.110277 -0.596287 0.305929 0.35972 -0.0319714 0.387821 -0.414968 0.830387 -1.01846 -0.249526 -0.0287676 -0.299839 -0.00568064 0.0132926 0.394599 0.414178 -0.294693 -0.905614 0.576188 -0.062157 0.349697 0.501464 -0.219855 -0.56773 0.418743 -0.100244 -0.0888388 -0.0472425 -0.262789 0.0661143 0.254153 -0.295261 -0.133901 0.308967 -0.359978 0.644403 -0.181251 0.140538 -0.0407558 0.239429 -0.681149 -0.618328 -0.527505 -0.0028208 -0.256848 0.349934 0.137652 -0.174562 -0.0678101 0.619073 0.468953 -0.199194 -0.339798 0.173946 0.0740758 -0.20686 -0.0222298 -0.177937 0.649409 -0.123249 -0.220963 -0.801 0.0591269 0.159133 -0.388144
柏林 0.52849 0.0575565 -0.138218 -0.530319 -0.00980975 -0.190686 0.601509 0.229686 0.481097 -0.510692 0.99184 -0.652377 -0.208871 -0.308012 -0.0440961 -0.14272 -0.473152 0.053804 -0.816046 -0.473116 0.600048 0.643178 0.428447 -0.102537 -0.934993 0.522017 0.128163 0.619796 -0.45892 -0.512142 -0.260691 -0.603527 0.121136 0.184978 -0.0257802 -0.352947 0.785592 0.209955 -0.170895 0.457277 0.116324 0.00712845 0.155135 -0.182407 -0.551843 -0.047502 1.16326 -0.725424 -0.4627 -0.633485 -0.468176 0.117361 0.460022 -0.353364 -0.173453 -1.15656 0.865004 0.197626 -0.180339 -0.574516 0.219905 0.204884 0.779913 0.0743231 -0.610188 0.0606332 0.961731 -0.241486 0.0592525 0.636474 -0.184299 -0.134472 -0.639557 0.436391 0.504486 0.0717786 -0.424531 0.72233 -0.133018 -0.228599 0.330711 -0.581889 -0.265385 -0.495141 0.904228 -0.424413 0.507308 0.260737 -0.0764845 -0.0754416 -0.0945195 0.0370618 -0.0744422 -0.449993 -0.157605 -0.012214 -0.776215 0.250881 0.247589 -0.524839 -0.843479 -0.061441 0.302288 -0.357464 0.561664 -0.103747 0.0219603 -0.229751 0.66809 -0.178422 -0.107231 -0.171771 -0.135761 0.319406 0.638175 -0.591599 0.0591846 -0.602584 -0.100595 0.489294 -0.491735 0.496783 -0.656913 0.464042 -0.0360341 -0.0831976 0.0416954 -0.524596 0.176349 0.0163265 0.625225 -0.257326 -0.326202 -0.374491 -0.320276 -0.575909 0.0178927 -0.315639 0.42219 0.248425 -0.270494 0.0586223 1.19377 -0.503891 -0.158896 -0.335544 -0.48399 -0.0649465 0.351934 -0.230603
主管 0.403188 -0.125761 0.684823 0.298255 0.152006 0.305765 0.646814 0.169261 -0.180342 0.39307 -0.419708 -0.28814 -0.183086 -1.03618 0.0243539 -0.510127 -0.373705 0.180522 0.0598367 -0.150433 -0.117914 0.223125 -0.480538 -0.0664719 0.711023 -0.505084 -0.148574 -0.726646 0.0394564 0.040194 -0.00638199 -0.181667 -0.0516245 -0.652398 0.0954886 -0.422502 -0.0647899 -0.237657 0.0831041 -0.0674627 -0.220629 -0.414363 -0.347701 0.119014 -0.162374 0.3294 0.2172 0.160723 -0.227826 0.649392 0.0838337 -0.304532 -0.394177 -0.339485 -0.556543 0.168971 0.268625 0.786399 0.174959 -0.0753719 -0.323671 0.320379 0.145279 -0.248109 0.193267 0.208942 -0.395305 -0.313413 -0.860371 0.607425 0.154725 0.364558 -0.728845 0.417225 0.22298 -0.435876 -0.49037 0.835922 -0.0858696 -0.250383 0.697855 -0.327456 0.325434 -0.0114652 -0.66865 -0.146984 -0.235136 -0.0306994 0.0465321 0.0804622 0.544661 -0.116902 -0.0706832 0.483167 -0.00112924 -0.696441 -0.795229 -0.266942 0.784976 0.249149 -0.0828011 0.148592 -0.223547 0.105879 -0.467858 0.616952 -0.0331643 -0.301711 0.190673 0.00213966 0.0698658 0.816271 -0.57512 -0.134049 -0.328296 -0.327524 -0.157421 -0.377342 0.883699 -0.0343701 0.301699 0.102695 -0.690157 -0.729584 0.51948 -0.0764522 -0.365058 -0.674727 0.38575 0.589211 0.569176 -0.36195 0.317857 0.293718 -0.567543 0.775968 0.246041 0.279477 -0.601444 -0.651929 -0.553333 0.0299493 -0.974851 -0.0159026 0.520035 -0.0737019 -0.5054 -0.169966 0.363781 -0.0592075
三星蔥 -0.256062 0.0425969 0.735443 -0.217833 0.0652317 -0.149252 -0.399959 -0.42374 0.889159 -0.132118 -0.0189788 -0.459614 -0.382657 -0.133585 -0.324813 -0.445401 0.419302 -0.051538 -0.200693 -0.020727 -0.412676 0.0987073 -0.39762 0.248299 0.0679137 -0.261655 0.583395 -0.0960183 0.421329 0.061214 0.00727586 0.297646 -0.937728 0.112306 -0.195119 0.429883 -0.291455 -0.672905 0.0430205 -0.127565 0.485818 0.100389 -0.60864 -0.453592 0.221394 0.0349236 -1.17841 0.0492776 0.055994 -0.602749 0.346099 -0.261289 -0.511766 0.00817006 -0.67855 0.00260048 0.172521 0.410313 -0.274281 -0.0130712 0.335453 0.504109 -0.147905 -0.165073 0.178058 -0.0304732 0.479557 0.414455 -0.0567802 0.323849 0.153029 0.355122 0.393144 -0.101027 0.0616801 0.137351 0.353637 -0.00292616 0.64211 0.422227 -0.0891843 -0.184887 -1.06973 -0.375279 0.86507 -0.230912 -0.354131 -0.72625 0.100649 -0.0202937 -0.0573562 -0.271072 -0.29324 -0.342082 0.0944727 0.0449044 -0.194963 0.313462 0.0402131 -0.311048 0.10002 -0.116526 -0.446264 0.0861833 0.412557 -0.668287 0.0271545 0.832943 0.340207 -0.434076 -0.0545805 -0.022314 -0.591415 -0.340531 -0.122949 -0.407083 -0.580311 0.294995 -0.338155 0.440668 0.179716 0.187938 0.479778 0.265477 0.545848 -0.354532 0.513885 -0.0923287 0.680268 0.0465178 0.456172 0.634754 -0.317798 0.0140254 0.0189046 0.359248 0.205113 0.0498541 0.538032 -0.0796463 -0.299963 0.237002 0.281184 0.591095 0.0679163 0.308706 0.0042509 0.266382 0.130776 0.756557
女孩 -0.84374 -0.513035 0.253472 -0.164606 0.157069 0.381679 0.26595 -0.377173 -0.56479 -1.05691 0.130548 -0.70522 0.131927 0.346904 -0.618665 -0.245927 -0.623583 -0.168724 0.39071 -0.411015 -0.38935 -0.0575967 0.464508 -0.312152 0.0559931 0.552432 -0.00225969 0.262183 1.013 -0.929452 -0.854522 -0.495942 -0.412129 -0.583312 0.239492 -0.616907 0.431067 0.0449883 0.0648495 0.464934 0.0586579 0.183601 0.227248 -0.118557 0.0546943 0.207568 0.474036 -0.0765301 -0.127161 -0.0850458 -0.474066 0.40334 -0.031799 -0.605068 0.481545 -0.000664754 0.243222 -0.686559 -0.24029 -0.0674358 -0.278594 -0.649477 -0.253792 -0.656202 -0.299602 0.686741 -0.675573 0.313101 -0.161135 0.449096 0.837385 0.168281 -1.56164e-05 0.0731059 0.610503 0.565974 -0.444723 0.032868 -0.578665 0.258007 0.234866 -0.246595 0.426832 -0.21864 -0.703321 -0.196741 0.140153 0.311779 0.542514 -0.092158 1.12568 0.614266 0.671178 0.0816115 -0.408188 -0.236255 -0.31081 0.722049 -0.155786 -0.74539 0.343786 0.765971 -0.317881 -0.0803402 0.373738 -0.135527 -0.357016 -0.753016 -0.25202 -0.426987 -0.154731 0.0190396 0.430447 -0.400148 -0.333432 0.116821 -0.21477 -0.00617338 -0.79663 -0.270283 -0.148072 -0.395501 -0.0821645 0.114457 -0.112918 0.156485 -0.407068 -0.391459 -0.0693771 -0.276042 0.1859 -0.395792 -0.491015 0.193845 -0.153299 0.167923 -0.442307 0.653215 -0.91995 -0.345787 -0.124052 0.0370162 0.196877 -0.0468034 0.511831 -0.62931 -0.470092 -0.00858755 -0.252544 -0.594984
美女 -0.88964 -0.646518 0.683255 0.0795328 -0.540208 0.252748 0.595357 -0.405902 -0.304738 0.047606 -0.110139 -0.139301 -0.0623531 -0.325306 -0.116132 -0.393678 -0.132476 -0.261098 0.451719 0.212521 0.036163 0.106479 -0.11125 0.108054 -0.125985 -0.00765017 -0.570626 0.350731 0.326514 -0.32809 -0.49753 -0.146491 0.492141 -0.45442 0.29661 -0.0804879 -0.471861 -0.0245471 -0.139554 0.0101177 -0.412878 0.170703 0.0682756 -0.131478 0.723563 0.351457 0.749474 0.545941 -0.064627 0.138319 -0.0289202 0.22781 -0.755276 -0.189861 -0.0994497 0.192701 0.223943 -0.179197 -0.272375 0.0303551 0.785703 0.128479 0.0678516 -0.264476 -0.402021 0.506617 -0.213942 -0.36585 -0.20554 -0.0837635 0.00343992 -0.569605 -0.143405 0.0256284 0.0601149 1.09776 -0.468413 -0.190738 -0.433936 0.753293 0.780912 -0.714845 0.756723 -0.0960674 -0.437626 -0.650766 0.683116 0.00464147 0.0766573 0.251188 -0.295875 -0.403773 0.0262996 -0.565732 -0.2149 0.0179104 0.334652 0.529572 -0.13987 -0.0645658 0.413441 0.562384 0.372452 0.311448 -0.126211 0.121518 0.0123935 -0.274438 -0.455854 -0.343308 -0.152215 -0.104178 0.0768529 -0.179857 -0.101005 -0.00225332 0.587589 0.310083 0.327488 0.423519 0.411588 -0.278801 -0.280012 -0.165142 -0.139738 -0.290457 -0.403021 -0.3117 0.0387757 -0.099621 0.239185 -0.777813 -0.11426 0.881639 -0.256625 0.466121 -0.387099 0.414038 -0.536688 -0.190485 0.336408 -0.389021 0.565191 -0.092679 0.724757 0.00180199 -0.475575 -0.893226 0.239831 -0.343933
美好 -0.915472 -0.505915 -1.10179 0.0291055 0.00824641 -0.213419 0.467619 -0.489636 -0.231372 -0.593131 0.194045 -0.477623 -0.680179 -0.221545 0.0129218 -0.500009 0.0209178 0.515307 0.316561 -0.0787075 -0.139265 -0.327911 0.126497 -0.200582 -0.513797 0.0637411 -0.339077 0.359664 0.670914 -0.989927 -0.12146 -0.374457 0.252938 -0.256409 0.316657 -0.347484 0.0585978 -0.127896 -1.01651 0.189336 0.321656 0.386914 -0.307495 -0.19735 0.00834809 -0.939862 -0.168009 -0.316201 -0.343688 0.198385 -0.272413 -0.0589932 -0.115974 0.30994 0.929295 0.343567 -0.0889669 -0.0583033 -0.503981 -0.076366 0.07525 0.729317 -0.858225 -0.288048 0.298182 0.499214 -0.528106 -0.308855 0.662061 0.375799 0.122546 0.166487 -0.0643537 0.261315 0.300752 0.192536 0.332459 0.746537 -0.443216 0.375732 -0.530654 -0.00673697 0.347667 -0.511667 -0.530361 0.317581 0.0602859 -0.474112 0.474125 -0.79919 0.389167 0.236472 0.108365 -0.342598 -0.173059 -0.416142 -0.113636 -0.00548315 -0.633519 -0.596462 -0.298288 0.641284 0.271697 0.20389 -0.527441 -0.240671 -0.561927 -0.0956212 0.23604 -0.39879 0.155687 0.616136 0.489745 -0.325435 0.295948 -0.290229 -0.193525 -0.247817 -0.6102 -0.506009 -0.019159 -0.64151 1.05568 0.018332 0.132367 -0.154198 0.509143 -0.162248 0.0263059 -0.146809 0.433578 -0.289542 -1.15778 -0.860032 -0.641109 -0.240027 0.446616 0.127492 -0.514599 -0.632219 -0.454572 0.190997 -0.0291134 -0.732933 -0.0775995 -1.16536 -0.136005 0.12957 0.43903 -0.652297
南部人 -0.00432258 1.00241 -0.375094 0.0999178 0.0988986 0.295497 -0.0147934 -0.561218 -0.054262 0.333898 -0.228168 -0.256762 0.20044 0.00354864 0.127148 0.307615 0.950082 -0.040372 0.0141088 0.0093356 -0.41633 -2.50898e-05 -0.783837 -0.0808548 -0.122345 -0.683016 0.0986077 -0.156157 0.184318 -0.236459 0.142779 0.097723 -0.328758 0.10547 0.181635 0.0602539 0.557651 -0.531197 0.0726922 0.7052 -0.0376169 1.49656 0.017022 0.373487 -0.269785 -0.24844 -0.422731 -0.759237 -0.0281972 0.00905269 -0.584656 0.307478 0.134329 -0.764269 0.568436 0.0872965 -0.0615518 -0.360125 -0.18578 0.216279 -0.425682 0.156684 0.0965635 -0.0801511 -0.123007 0.510716 0.200789 0.0334812 0.282263 0.263517 0.0800562 -0.0994718 0.365196 -0.180801 -0.748433 0.131293 -0.567808 -0.0888907 0.232138 0.577704 0.810776 0.514741 -0.467165 -0.0414629 0.261477 0.286628 -0.354234 0.126366 -0.420857 0.453257 0.35839 -0.0509958 1.04518 -0.553054 -0.00248391 0.31329 -0.0150119 0.470971 -0.341542 0.460372 -0.0458495 0.139624 -0.0942487 -0.31708 -0.160155 -0.401682 0.281677 0.101756 0.365311 -0.673387 0.281917 -0.025704 0.177518 0.216048 0.0936558 -0.393496 -0.169964 0.395521 0.495118 -0.222293 0.293765 0.530259 -0.267129 0.288633 -0.449821 -0.106329 -0.533188 -0.0870346 0.00755364 0.117966 0.0984041 0.228707 0.00396828 -0.300686 0.561832 0.23013 0.589516 0.0508224 -0.0110418 -0.125226 -0.259986 -0.168994 -0.640855 0.175683 0.537083 -0.035496 0.285083 -0.689564 0.0946653 0.239035
滑鼠 -0.00814342 0.0790271 0.468541 -0.451674 -0.295291 0.0444914 0.316617 0.570732 -0.293593 -0.352283 -0.0518447 -0.124015 0.456344 -0.0283552 -0.15083 0.0475247 0.176558 -0.0690148 0.602193 -0.113508 -0.0248866 -0.463846 0.212946 -0.441598 0.115907 1.06443 0.667414 0.462376 0.468305 0.685373 -0.797859 0.333468 -0.0702197 0.281099 0.0145193 -0.367363 0.84775 -0.4261 -0.0563018 0.151796 -0.118756 -0.217339 -0.0455325 0.138593 -0.695856 0.104824 -0.299679 -0.292553 0.211088 -0.0769167 -0.471449 -0.138952 -0.823901 0.206391 -0.265191 -0.383634 -0.168028 -0.421778 0.277627 0.849684 -0.00567944 0.678082 -0.556124 0.196408 0.507385 0.44367 -0.80839 0.345131 0.014089 -1.06987 0.216721 -0.0725796 0.880078 -0.752591 0.82197 0.220696 -0.150843 0.385629 -0.235015 0.43761 0.0511493 -0.0993178 -0.0584952 0.233378 -0.312586 0.64421 0.359221 0.0832303 -1.02827 0.372176 0.0925616 -0.032951 0.666726 -0.68051 0.634359 0.458617 -0.367546 -0.826988 0.381053 1.08436 0.02982 -0.233721 -0.0114021 0.335566 0.0103976 -0.293674 0.393017 -0.201478 -0.0648726 0.143092 0.50804 -0.736326 0.492561 0.567813 -0.309721 -0.574782 0.155121 0.757216 0.0595429 0.930633 -0.106833 0.311128 0.857204 -0.637138 0.530741 -0.0924137 -0.0113645 -0.0668344 0.032831 -0.468748 0.291443 0.0782974 0.341328 -0.601045 -0.193533 -0.296874 0.192797 -0.513931 1.2423 0.306585 0.170465 0.378513 -0.185511 0.223591 -0.0935017 0.092482 0.294229 -0.368477 -0.0215087 0.185776
HUNGRY 0.119139 -0.275746 0.107284 0.0849997 -0.0326049 -0.0938004 0.602131 0.0632176 -0.29867 0.482492 0.578338 -0.750078 -0.142083 -0.137421 0.0219862 0.448726 -0.311152 -0.254107 0.046753 0.229146 -0.337516 0.123033 0.173918 0.0295043 -0.319217 0.483219 0.625624 -0.055222 -0.315911 -0.958682 0.414516 0.185327 0.922935 -0.0802604 0.198829 -0.0549624 0.518511 0.169166 -0.280903 -0.0324573 0.0108977 0.290551 0.168175 0.064163 0.158093 -0.512597 0.044914 0.366713 0.239214 -0.200633 -0.0247747 0.218049 0.470381 -0.0709126 -0.418777 -0.179675 0.130674 -0.388005 0.619708 0.233465 0.320641 -0.0256731 0.186652 0.238814 0.128577 -0.161646 0.423486 0.0189749 -0.318375 0.201323 -0.010808 -0.326396 0.197728 -0.70962 -0.269048 -0.413721 -0.0682147 -0.319249 0.635983 -0.108036 0.749159 -0.017203 -0.555918 0.0552252 0.0920196 -0.0971147 0.0843948 -0.295693 0.421539 0.397957 -0.150661 -0.109343 -0.524402 0.232305 -0.42557 -0.284079 -0.158306 -0.337472 0.0778415 -0.251094 -0.173367 -0.116707 -0.575982 -0.28741 0.172665 -0.236897 0.624751 0.251407 -0.0516172 -0.342762 -0.178483 -0.214737 0.00849903 -0.0158962 0.0242081 -0.209728 -0.294406 0.0180451 -0.00328301 -0.120649 -0.536275 -0.441233 0.157858 0.137116 0.0898989 0.244671 -0.102368 -0.176319 -0.0871216 -0.164886 -0.22031 0.0351419 0.165942 -0.426981 -0.269341 0.0880254 -0.00868303 -0.293546 -0.624173 -0.434985 -0.521632 -0.217598 0.657769 -0.575704 0.188656 0.0573958 0.276014 -0.0592629 0.0722919 -0.150468
OSX 0.476635 0.421681 0.442411 0.411086 -0.138917 -0.0729312 0.271979 -0.359022 0.144184 0.653795 0.188784 -0.0984758 0.00575204 0.255526 -0.0573862 0.77017 -0.0828558 -0.040623 0.462179 0.130076 -0.453037 0.12712 0.473567 0.478942 0.689815 0.28979 0.171524 -0.10932 -0.132084 0.483859 -0.162744 -0.522954 -0.0689928 -0.298764 -0.00236718 -0.449423 -0.264298 0.229581 -0.255122 -0.0797937 -0.633548 0.125318 0.0528828 0.374 -0.0585385 -0.643671 -0.23013 0.066848 -0.031041 -0.0128461 -0.497549 0.185449 -0.224625 0.54796 -0.181033 -0.569428 0.229383 0.0661193 0.199986 0.000626147 0.0310732 0.202887 0.258372 0.431034 0.367273 0.328091 -0.238644 -0.290846 -0.0499899 -0.606491 0.192857 -0.184724 0.384952 0.034796 -0.514695 -0.278149 0.252897 0.316166 0.0615534 -0.119103 -0.0164956 -0.172178 -0.296111 0.108378 -0.0175037 0.285036 -0.328289 -0.172062 -0.222588 0.680361 0.100187 0.295452 -0.224233 -0.124452 -0.0419982 0.408063 0.583033 -0.39408 0.0125028 -0.130517 0.0164412 0.0807168 -0.352329 -0.421295 0.183601 -0.42709 -0.154503 -0.346472 0.142876 -0.143475 0.127592 -0.738719 0.0353974 -0.325816 0.325001 -0.609088 0.246437 0.135221 -0.203019 0.383938 -0.610448 0.230543 0.7121 0.0250004 -0.089684 -0.0963765 0.0188536 0.488206 0.196962 -0.133596 -0.207036 -0.804323 0.391517 0.588683 -0.0654076 -0.301051 0.233905 -0.685218 0.155515 -0.151681 -0.41536 -0.170613 -0.00239765 -0.294578 0.244432 -0.171252 -0.177028 0.685742 0.122279 0.260987
SPOTIFY -0.306426 -0.254503 -0.0829951 -0.250646 -0.0755767 -0.0943729 -0.132504 0.438851 0.242822 0.144181 0.225946 0.272736 0.201833 0.462895 0.199279 0.111405 0.0825765 -0.11976 0.270428 0.566599 0.244063 0.248906 0.472314 0.0822064 0.317973 0.521911 -0.053009 -0.0804988 0.185798 0.334794 -0.0686993 0.626845 0.388438 0.337113 -0.213656 -0.497738 0.409968 0.264833 -0.0929635 -0.279509 0.0234961 -0.259681 -0.357812 0.308728 0.265994 -0.247465 0.0157562 0.32963 -0.134823 -0.216628 0.443282 0.353614 0.0557617 0.133164 0.0158471 -0.19208 0.0189656 0.503224 -0.0114766 -0.140983 0.127806 0.594991 -0.168653 -0.29873 0.43155 -0.291372 -0.200236 0.291279 -0.184644 0.393462 -0.181968 0.0694951 0.375755 -0.617941 0.0850066 -0.17329 0.4331 0.119734 0.0925132 -0.0055002 -0.492887 0.133964 0.0501729 0.327861 0.0197609 0.380243 -0.343215 -0.121448 0.267257 -0.357113 -0.0879986 0.751358 -0.170441 -0.533629 -0.0840651 0.310667 0.362101 0.0167274 0.294347 0.287883 0.0838367 -0.335055 0.172843 0.169307 -0.0794053 0.0577713 -0.473247 0.439878 0.429797 0.170915 -0.187426 0.0510404 0.0536741 -0.0859814 0.0299743 -0.669593 0.0726761 0.429968 0.234294 0.330487 -0.291804 -0.12291 -0.0220249 -0.167255 0.261711 -0.111312 -0.10996 0.205466 0.393849 0.238455 -0.0934449 -0.0881984 0.256228 0.173309 0.191482 -0.182576 -0.208811 0.173103 0.385096 0.370107 0.0463948 -0.130857 0.108702 -0.263499 0.0674673 0.199507 0.05277 0.309633 0.00766932 -0.0499395
壞人 0.0698817 0.134373 0.235858 0.243083 -0.194114 -0.5841 0.0351116 -0.530873 0.246974 -0.597345 -0.47091 -0.37263 0.285162 -0.116761 -0.285483 0.225487 -0.932914 0.626619 -0.180277 -0.2351 -0.243988 -0.534646 -0.24856 0.821717 0.078318 0.468827 0.693236 0.111638 0.357136 -1.12637 -0.444776 -0.364602 0.143733 -0.315412 -0.450649 -0.0387883 0.0286074 -0.351242 -0.308613 0.141158 0.427015 -0.176405 0.0691103 -0.376178 -0.210753 0.924531 -0.0215619 -0.223438 0.0597071 0.28118 0.869344 0.807933 -0.0610716 -0.150717 0.0586782 0.177742 0.293928 -0.545799 -0.122442 0.495807 -0.461776 -0.473163 -0.197823 -0.0580124 0.161733 0.402233 -0.240465 0.0716649 -0.590509 -0.26549 0.281248 0.596895 0.205677 0.0677573 0.0846455 -0.420738 -0.256187 0.344245 -0.583885 0.073714 0.0154851 0.075289 -0.00228174 0.463237 -0.023025 -0.0547733 -0.586231 0.105563 0.939046 -0.237079 -0.476538 0.414993 0.0339693 -0.302244 -0.50654 -0.200272 -0.0229818 0.462924 -0.36468 0.332954 0.441619 -0.461566 -0.940084 0.576401 0.218596 -0.118162 -0.566712 -0.377022 -0.471542 -0.356002 0.533155 0.492735 -0.402857 0.284709 0.435067 -0.130852 0.590254 0.154952 -0.1638 -0.125948 -0.0351818 -0.0543492 -0.255151 -0.62294 0.145902 0.20034 -0.539903 -0.20774 -0.0452702 0.0159833 0.132723 0.22186 -0.307214 0.152713 -0.261441 0.530164 0.19153 0.5601 -0.32507 -0.421472 0.280884 0.158057 -0.075827 -0.531276 0.309322 -0.626808 -0.566393 0.0598803 0.963942 -0.183227
KKBOX -0.0275169 0.149845 0.702346 -0.339396 -0.0450205 0.136213 -0.513502 0.521233 0.271973 -0.0191514 0.162737 0.455676 -0.308216 -0.295945 0.366264 0.0936373 0.289997 0.0999545 -0.178133 -0.388052 0.0384653 0.379938 0.31224 0.534217 0.126421 -0.0290644 -0.0368263 -0.478382 -0.424652 0.673458 0.0866061 0.140562 0.466675 0.196249 0.255332 -0.560704 0.432053 0.115714 0.303222 -0.695195 0.0445083 0.229474 -0.242439 0.354152 -0.24523 -0.341585 -0.215282 0.586592 -0.0335804 -0.583373 -0.23396 0.118803 0.455431 0.41711 -0.126394 0.204378 0.0626637 0.285332 0.162968 0.646472 0.534541 -0.13565 0.441214 0.046216 0.0555619 0.00176239 -0.273827 -0.257732 0.231539 -0.0468133 -0.160042 0.19832 0.314046 0.140687 0.010268 -0.707194 -0.0807213 0.0803939 0.193728 -0.0526205 -0.0482556 -0.302022 0.154066 -0.252962 0.293263 0.0373508 0.00172219 0.377857 -0.292414 0.170313 0.00297848 0.287545 -0.070008 -0.212861 0.364683 -0.0387528 -0.499351 -0.749485 0.487358 0.204538 0.240727 -0.22643 0.524613 -0.0592963 0.183837 -0.264298 0.493401 0.469414 0.593317 -0.36858 0.298632 0.0197191 -0.270819 0.22505 -0.563333 -0.468029 -0.54464 0.374162 0.206855 0.342699 -0.432144 0.042536 -0.107954 -0.106481 0.335038 -0.300703 -0.131015 0.329502 0.335522 -0.00485381 0.091286 -0.491094 0.511194 -0.104952 0.349603 0.0693399 -0.074639 -0.140189 0.598915 0.36189 -0.0674226 0.0807092 -0.375791 -0.0381171 -0.124631 -0.0733306 0.432066 0.409115 -0.587023 0.019744
貓空 -0.109931 0.435321 -0.0670809 -0.18726 0.625389 -0.269147 -0.267934 -0.194746 0.342307 0.166715 -0.0846452 -0.0901358 -0.285227 0.386031 -0.24657 -0.157082 1.04269 0.525715 -0.161173 -0.164772 0.104414 -0.152984 -0.069457 0.0373689 -0.125638 0.331471 0.225357 -0.030242 -0.115308 -0.0475217 0.42702 0.189922 -0.0323111 -0.171999 0.280936 0.61174 0.431076 0.475739 0.128454 -0.0469387 -0.130408 1.01203 -0.515279 0.888505 -0.0800284 0.652541 -0.0795779 -0.165545 0.297952 -0.0723001 -0.637081 0.223292 -0.226251 0.161154 -0.134894 0.348776 0.186217 -0.626577 0.205502 0.250036 0.225289 0.040632 0.180832 0.0938689 -0.508519 0.0937193 0.164257 -0.0307645 -0.373606 0.0170988 0.0101658 0.298823 -0.351653 -0.3148 0.134796 -0.0200422 0.087786 0.249044 0.0443404 -0.220637 0.756773 -0.372261 0.215794 -0.666083 -0.23214 -0.353618 0.173166 0.189093 -0.130856 0.272486 -0.17876 -0.351383 -0.19741 -0.598605 0.0554239 -0.451198 -0.0245245 -0.505853 0.26248 0.648131 -0.13779 0.713795 0.261855 0.0301932 -0.341633 0.0672151 0.490711 0.0978733 0.389756 0.433601 -0.290534 -0.298453 0.209228 -0.900736 -0.238252 -0.322798 -0.165759 0.0826404 0.573904 1.009 -0.176648 0.110073 0.753115 0.123785 0.0239616 0.29553 0.218446 -0.105843 -0.622657 0.0891358 0.266645 0.594145 0.0618188 0.132181 0.521261 -0.441617 0.0567206 -0.200621 0.187304 -0.841313 0.308941 0.229124 0.130516 -0.28597 -0.638868 -0.058493 0.232786 -0.187679 -0.510528 -0.173053
鉛筆 -0.163393 -0.323309 0.404212 -0.55287 0.156265 0.364325 -0.0244337 -0.276134 0.425456 -0.156724 -0.211518 -0.340191 0.166672 0.0553859 -0.239586 -0.59978 -0.392829 0.208817 0.153277 0.370451 0.142536 0.174991 0.421356 -0.443778 -0.0107018 0.422685 -0.0110758 0.431829 0.0657943 1.04017 0.130726 -0.706824 0.120162 -0.0238432 -0.21261 -0.147595 0.116533 -0.0755309 -0.401752 0.100128 0.379924 0.191834 0.41117 -0.011004 0.158234 -0.0325302 -0.867737 0.291633 0.00781029 0.00849863 -0.303772 0.0573487 0.118778 0.448429 -0.560557 0.0461161 0.209389 0.355724 0.0147026 0.147847 0.139085 0.295961 -0.0793435 -0.413391 0.732648 -0.465297 -0.483811 -0.0299318 0.27847 -0.475922 0.167567 0.147604 0.471444 -0.0423584 -0.049346 0.0481911 0.148344 0.565729 0.0222712 0.422001 0.192367 -0.302656 -0.0530221 0.556091 1.00492 -0.449363 0.459515 0.54873 -0.744213 0.129002 -0.227879 0.104446 -0.163111 -0.0205194 -0.184137 0.0806143 0.568432 -0.364545 0.164967 0.00401234 0.297169 0.0438929 0.517097 -0.566674 0.0619967 -0.461857 0.46177 -0.827368 0.254184 -0.0114186 -0.234083 -0.35078 0.0656905 -0.245095 -0.0816518 0.521576 -0.353606 -0.0583944 -0.239499 -0.0507578 0.135301 -0.539368 0.285396 -0.737328 0.224865 -0.0461003 0.436286 -0.294942 -0.109041 0.243596 -0.147008 0.45993 -0.291681 -0.298448 -0.02529 0.426058 0.558993 -0.0873102 0.412737 -0.345608 0.395954 0.124632 -0.151841 -0.00127645 -0.0210129 0.404918 -0.00218453 0.396528 -0.342296 0.0555852
綠茶 0.42564 0.228878 -0.682936 0.127052 -0.649004 -1.0838 -0.522868 0.68514 0.0334324 -0.418746 -0.834537 0.536915 -0.300823 0.0496763 -0.1829 1.01885 0.851209 -0.286132 -0.0690826 0.429711 0.149385 -0.345229 -0.0381751 -0.402665 -0.172129 -0.149438 0.357118 0.784394 0.11123 0.106954 -0.435291 -0.361112 -0.203482 0.320297 -0.285074 0.937279 -0.228938 0.448907 -0.464468 0.028858 -1.07645 -0.0022184 -0.347407 -0.230487 -0.0314525 -0.181643 -0.312494 -0.442202 0.259277 0.315963 -0.452244 0.269326 -0.198732 -0.0921536 0.148004 0.717068 -0.0817955 0.310457 0.265214 -0.807251 0.0889957 0.249607 -0.536108 -0.0453038 0.304547 -0.170065 -0.349875 -0.828439 -0.650589 -0.39286 0.0748963 0.301705 -0.903519 0.432098 0.390549 0.844356 -0.365655 0.381796 0.142654 0.0128331 0.372482 0.473115 -0.378504 0.342336 -0.590552 -0.0829269 0.189893 0.398342 -0.94224 -1.03649 -0.110214 -1.00064 0.19794 -0.286417 0.211035 0.342748 -0.229514 0.25563 0.78804 -0.185652 -0.0572238 0.0522369 -0.2322 0.454363 -0.360315 -0.0802294 0.275801 -0.89038 -0.581728 -0.103178 -0.00219359 0.152149 0.158268 -0.259384 -0.436364 0.214636 -0.0825154 0.958291 -0.918126 -0.208313 0.15962 0.287912 0.593662 -0.337006 -0.318778 -0.083779 -0.0233193 -0.0653474 -0.786391 -0.41708 0.1969 0.282434 -0.13261 0.198758 0.034231 0.018151 -0.12391 0.0954051 -0.176187 0.281483 -0.672009 0.711704 0.0932293 -0.14718 -1.01004 0.0314821 0.19499 -0.394149 -0.0162019 -0.323578
APPLE 0.650782 -0.0406692 0.0248299 0.705655 -0.434835 -0.341462 0.702263 0.0349627 -0.542883 0.412897 -0.339358 0.521598 0.0599467 -0.149531 -0.394801 0.60262 0.253965 0.0572605 0.497984 0.0500547 0.259886 -0.39543 0.229202 -0.229293 0.057336 0.124393 -0.130849 0.0604413 -0.0860959 -0.456096 -0.474396 0.328884 0.686129 -0.338479 -0.20006 -0.200727 -0.571789 -0.412103 0.180796 -0.442883 -0.213579 0.503842 -0.337053 -0.0815527 0.626133 -0.559991 -0.24302 0.262683 -0.457993 -0.315515 -0.277076 0.233749 -0.408717 0.176443 -0.51043 0.0252691 0.268113 -0.45178 0.237283 -0.529425 -0.15114 0.825913 0.45984 -0.0583161 0.481608 -0.774352 -0.559468 -0.465258 -0.638713 0.123769 0.1737 -0.442114 0.257581 0.0781993 0.302494 -0.251417 -0.445476 -0.4787 0.132236 0.576184 0.855691 0.695212 0.303947 0.299166 -0.133232 0.264858 0.177473 -0.360354 0.149291 -0.472261 -0.258354 0.194366 0.0656938 -0.158199 0.152173 0.825486 0.205152 0.264289 0.750565 0.0691893 0.388114 -1.17491 0.185175 0.180994 -0.422312 0.402616 -0.185831 -0.0269311 0.502024 -0.561937 0.420898 -0.278929 -0.267282 -0.243129 -0.0284458 0.68193 -0.462363 -0.358364 -0.224679 0.451165 -0.162957 -0.0363332 -0.615122 0.449327 -0.204843 -1.08867 -0.543464 -0.530631 -0.165854 0.18336 -0.330747 -0.220909 0.248828 0.253798 0.0683983 -0.260328 0.472038 0.0312208 0.641007 -0.418971 -0.961362 -0.155261 0.438287 -1.01106 -0.591305 -0.323288 -0.347734 -0.51561 -0.269227 -0.057749
快樂 0.065233 0.235838 -1.02684 0.736207 -0.228794 0.735404 0.969458 -1.40796 -0.672452 -0.655263 0.7773 0.0145933 0.446086 -0.411398 -0.593743 0.0693829 -0.243771 0.295368 0.252454 -0.170276 -0.104537 -0.696256 0.693906 0.00666949 -0.310044 0.91289 0.235302 0.515259 0.0867209 0.175601 0.310147 -0.600073 -0.306255 -0.157648 0.624701 -0.00365493 0.166419 -0.554458 -1.06713 0.575668 0.114813 0.355834 0.291347 -0.434853 -0.406901 -0.32011 0.588003 -0.238095 0.271911 -0.687486 0.167825 -0.0803803 0.253063 -0.289554 1.03087 -0.0350838 0.665707 0.262561 -0.755732 -0.889918 0.00873837 0.155454 -0.721239 -0.685921 -0.289205 -0.0910219 -0.382528 0.561138 0.201397 0.527697 0.985212 -0.476971 -0.194076 0.663595 0.875855 -0.294718 -0.389936 0.130897 -0.281446 0.555749 0.218381 0.197578 0.180445 -0.194727 -0.0508636 0.729789 0.713763 0.399243 0.705706 -0.683078 0.261539 0.360145 -0.128282 -0.202225 -0.0111455 0.256906 -0.130409 -0.320266 0.0176922 -0.0138285 -0.356663 0.501802 -0.501631 0.109265 -0.28538 0.286946 0.274745 -0.751979 -0.363354 -0.0373993 0.91065 0.828529 0.359698 0.186553 0.17272 -0.614108 -0.704323 -0.0913626 -0.716761 -0.677626 0.190885 0.311901 -0.0592788 -0.330488 0.846245 0.523703 -0.358996 -0.436247 -0.0487612 0.170403 0.800828 -0.336418 -1.41848 -0.166807 0.117048 0.278737 -0.228895 0.266083 -0.00459819 -0.963093 -0.356333 0.542572 -0.404927 -0.585405 -0.295353 -0.60706 -0.701524 0.605358 0.353356 -0.0973019
九把刀 -0.146867 -0.409827 0.517508 -0.342371 0.156626 -0.247299 -0.504394 -0.114558 -0.411597 0.129845 -0.119346 0.463119 0.0937641 -0.433071 -0.0825266 -0.231211 -0.481466 0.662526 -0.213772 0.38404 -0.00773744 -0.310109 0.293551 0.228513 -0.251271 -0.119343 -0.628022 0.710708 -0.081803 0.0497628 -0.0793711 -0.0345666 0.552628 -0.470655 0.199005 -0.501213 0.0779087 -0.148933 -0.299916 0.449474 0.490588 0.394415 0.0551537 -0.083144 0.137495 -0.00422576 0.359084 -0.4872 -0.409048 0.715071 -0.442617 -0.247448 -0.206914 0.144565 -0.673318 -0.0375797 0.170006 -0.234296 -0.640029 0.169026 0.344505 0.15288 0.335911 -0.453055 0.0764102 0.305068 0.151432 0.184208 0.443247 0.0576147 0.127361 -0.276916 -0.50519 -0.0156333 -0.294126 -0.14962 -0.431733 -0.7411 -0.032096 0.738113 0.303593 -0.284931 -0.489271 -0.100086 0.1121 -0.525183 0.394097 0.3901 0.0746525 -0.505548 0.127365 -0.200111 0.436028 -0.00493932 -0.363127 -0.0968796 0.563452 0.57211 0.0416108 0.544681 0.302114 -0.0678455 0.107919 -0.417494 -0.436283 -0.591708 -0.000219995 -0.293552 -0.122508 0.0114656 -0.16324 -0.47754 0.33105 0.431662 -0.0567363 -0.324578 0.0216993 0.523887 -0.344517 0.291421 -0.152074 -0.119741 0.230899 0.160571 0.237898 0.0136296 0.355136 -0.401694 -0.0994101 0.920087 0.252027 -0.03132 -0.135067 0.131405 0.692363 -0.297105 -0.0594381 0.829488 -0.314451 0.0259639 0.352957 0.415548 -0.189563 -0.0470988 -0.2199 -0.0608078 -0.0764364 0.229738 0.269425 0.238878
MAC 0.309808 -0.0493607 0.474614 0.64489 -0.637539 -0.802545 0.489568 0.184947 0.36369 -0.0886227 -0.0412157 0.490132 0.0628236 -0.382676 -0.119518 0.26247 -0.104437 0.242712 -0.640537 -0.224171 0.463054 0.950433 0.611641 -0.272168 -0.261362 0.027398 -0.252577 -0.615206 -0.0983003 -0.599985 -0.603318 -0.244012 0.194848 -0.435683 -0.277355 -0.912811 -0.485264 -0.189267 -0.360021 0.348482 0.218462 0.139555 -0.634216 0.270629 0.184524 -0.534448 -0.274844 0.620727 -0.105788 -0.683113 -0.560443 0.319621 -0.190501 -0.226898 -0.632996 0.0972807 -0.140161 -0.480617 -0.386682 -0.0416382 -0.207032 0.479554 0.487607 0.289129 -0.273089 0.319681 -0.591337 -0.361726 -0.779363 0.070338 0.087539 0.136258 0.21896 0.231615 -0.128318 -0.317254 -0.147542 -0.000107436 -0.110013 -0.450734 -0.230962 -0.556328 -0.349258 -0.455458 0.0338813 -0.18363 -0.0442306 -0.00262336 0.0539209 -0.345363 0.141994 -0.493384 -0.18549 -0.271813 -0.151832 0.469673 -0.178996 -0.695208 0.888791 0.116881 -0.428814 -0.690943 0.41748 0.311321 -0.538406 0.304092 0.479651 -0.824458 0.420889 -0.353186 0.0113014 -0.821497 -0.0778296 -0.963822 0.243583 0.814455 0.23069 0.019626 -0.851407 -0.170812 -0.825111 0.254957 0.266154 0.440971 0.212151 -0.310738 -0.538836 -0.729267 0.0727033 0.0206552 -0.105911 0.157199 0.176573 -0.0129354 0.16297 0.275658 0.304497 0.10601 0.298606 -0.126038 -0.688831 -0.270855 -0.0550498 -1.185 -0.445085 0.133068 -0.888861 -0.219734 -0.187465 -0.0600975
虛擬 0.299693 -0.569945 0.254646 0.541443 0.599312 0.305664 0.724257 -0.413521 -0.0535589 -0.328843 -0.273428 0.233596 -0.656017 0.216002 -0.076084 -0.189892 -0.0321792 -0.540843 0.0423789 -0.464122 -0.10368 -0.514362 -0.121439 -1.10233 -0.661029 0.31564 0.167393 0.0996297 0.535273 -0.115457 -0.147521 0.564666 0.724831 0.36918 -0.1946 -0.286469 -0.585036 -0.17441 -0.152595 -0.0457076 -0.158424 0.257317 -0.726645 -0.43582 0.210939 0.467534 -0.159571 0.0891629 0.247472 -0.102357 -0.39855 0.831401 -0.60732 0.019403 -0.613306 -0.354896 -0.297085 -0.161363 -0.553594 -0.269668 -0.349681 -0.0551195 0.298261 0.855619 0.489794 0.380854 0.0716813 -0.0582746 -0.417388 -0.922836 0.439797 -0.218068 -0.217794 0.95842 0.486187 -0.622116 0.160487 0.755493 -0.547719 0.543549 0.635149 -0.491955 0.655662 -0.567058 0.31413 0.487394 -0.463343 0.185963 0.0301248 -0.0622946 0.056795 0.594348 -0.0329 -0.302167 -0.229087 -0.127999 -0.0968728 -0.519794 -0.0207577 0.123392 0.189495 -0.536321 0.540547 -0.168203 0.00394344 0.182466 -0.344308 -0.882797 0.441932 -0.12431 -0.00426386 -0.188362 -0.302413 -0.259223 0.00387578 -0.443644 0.441544 -0.314441 0.308503 -0.368197 -0.435146 -0.208703 0.475557 -0.477733 0.194744 -0.497367 0.0411269 0.029732 0.583968 -0.307864 -0.357157 0.294337 0.0785371 -0.340282 0.223504 0.426022 0.033014 -0.395015 -0.439665 -0.45711 0.285318 0.306964 0.102976 -0.920187 -0.537964 -0.216202 -0.376443 -0.48124 0.192387 0.231439
郭台銘 0.313611 -0.31531 0.00393705 -0.371971 -0.459015 -0.684308 0.685015 -0.00653023 -0.708354 0.422535 -0.102703 0.376917 -0.525486 -0.641631 0.157748 -0.0981859 -0.264979 0.475227 -0.174745 0.27451 -0.178299 -0.264059 -0.131667 0.118137 0.270651 -0.168354 -0.428904 -0.197707 -0.243509 -0.0523917 -0.032187 -0.303745 -0.186292 -0.239617 0.209096 -0.474619 -0.0776414 0.0226371 0.314178 -0.490316 0.380344 0.561063 -0.511893 0.407798 -0.480718 -0.277471 -0.143131 0.546076 0.114484 0.558797 -0.0160369 -0.721181 -0.232989 -0.352815 -0.338773 -0.404406 0.268135 0.35012 -0.0934238 0.424759 0.123463 0.122098 -0.0608588 -0.0726958 0.3315 0.159722 -0.224738 0.206844 -0.490502 -0.42915 -0.313599 0.272525 -0.161267 -0.0184823 -0.103351 0.0323398 0.0820519 0.191566 -0.404371 -0.19226 0.956597 -0.0242568 -0.472972 0.0756941 0.480647 -0.0655251 -0.0826878 0.39594 -0.441955 -0.641923 -0.344876 0.333224 -0.71877 -0.139981 -0.208803 -0.0379744 0.236483 0.653943 -0.318522 0.014688 -0.00199351 -0.429248 0.115577 0.154745 0.0448182 -0.227234 0.301111 -0.152741 0.262421 -0.220272 -0.665994 0.249072 0.178224 0.666911 -0.96536 -0.107038 0.254606 0.549152 0.0828447 0.181124 0.264976 0.202348 -0.670231 -0.463517 0.535283 0.235494 0.104318 -0.0929624 0.402104 0.990641 0.28271 -0.501532 0.21242 0.164221 0.44989 0.226798 -0.260707 0.199397 -0.217189 0.183223 0.346271 0.639676 0.0722235 -0.918152 0.345613 0.0544134 -0.235531 -0.327489 -0.00351464 0.099333
雨 0.206529 0.215988 0.0179762 -0.642261 0.175112 0.247451 0.351622 0.364274 0.0767177 -0.0370149 0.0851566 0.775817 0.598512 0.330915 -0.0884706 0.418859 0.268473 0.00941347 0.412715 0.381142 0.210804 -0.474001 -0.304298 -0.400649 -0.262329 0.65849 -0.0963527 0.550109 0.134828 0.428244 -0.11077 -0.112337 -0.932102 -0.518535 0.723296 -0.138966 0.33368 -0.466479 0.387341 0.463248 0.679493 0.184384 0.0556902 0.597663 0.371826 -0.749118 -0.571628 0.348606 -0.471401 0.423943 -0.97069 0.0989406 0.48952 -0.158911 0.203505 -0.130931 0.547225 -0.850633 0.26762 0.165147 0.0590021 0.551709 -0.483275 -0.193357 -0.407265 0.380118 -0.198546 0.0983422 -0.787425 0.50147 0.127799 0.259186 0.243063 -0.0123135 -0.857263 -0.424075 -0.812577 -0.0452138 -0.531408 0.198203 -0.5176 0.0342669 -0.0979368 -0.0274319 -0.318946 0.11495 -0.348371 0.958626 0.743079 0.569495 0.641311 0.428975 -0.524472 -0.547705 0.0395549 0.0266758 -0.736719 0.0923142 -1.03921 0.0692138 -0.314464 0.57914 0.347576 0.02948 -0.179062 -0.370979 0.546283 0.42145 -0.213758 1.02027 0.214051 0.16207 0.548236 -0.0603435 -0.386339 -0.2564 0.534399 -0.43878 -0.359214 -0.851686 1.01059 -0.758822 -0.156393 0.0480137 -0.723956 0.0318342 0.434848 -0.213188 -0.701247 -0.249642 0.54385 -0.279418 -0.0696088 -0.136017 -0.281896 0.974381 -0.408307 0.779548 -0.50613 0.869963 0.396323 1.02708 0.875359 0.139101 -0.28347 -0.0788827 -0.136637 -0.569923 0.233552 -0.672654
正體 -0.559552 -0.737554 -0.43748 0.314238 -0.607259 -0.0645439 0.3716 -0.00657418 0.617804 -0.101266 -0.63442 -0.20586 1.04066 -0.0855464 -0.078352 -0.38385 0.305406 0.00676763 -0.290365 -0.5532 0.459442 -0.112776 0.613214 -0.407275 0.367963 0.530694 -0.538482 -0.520148 0.00226454 0.181454 0.313314 -0.504591 -0.220812 -0.275262 0.357812 0.523803 -0.143653 -0.980954 0.229315 0.33114 -1.03171 0.110408 0.435047 -0.18295 0.806692 -0.623402 -0.505422 0.935519 -0.0357303 0.782091 -0.347993 0.289269 1.01131 0.0627395 -0.290195 -0.0284596 0.116909 -0.422755 -0.57563 0.0998502 0.656109 0.046737 0.762954 -0.586269 0.414369 -0.319527 0.152897 0.72849 -0.129564 0.325587 -0.325817 -0.516118 -0.389497 0.402638 -0.582189 -0.600083 -0.341688 0.139157 0.222571 -0.221239 -0.0363699 0.116057 -1.12762 -0.27822 0.589398 0.523963 -0.423426 -0.109415 -0.648929 0.822432 0.35617 0.509618 0.375007 0.487876 0.456238 0.209942 0.242132 -0.257254 0.194356 0.0535293 0.227539 0.204195 1.1975 -0.699078 0.94401 -0.229413 0.259762 0.00663286 -0.822379 -0.155558 -0.174202 -1.22368 -0.170711 1.08465 0.318613 -0.580451 -0.0944677 -0.0951085 -0.396943 0.288257 -0.397052 0.0286175 0.914169 -0.762268 0.507051 0.662146 0.316784 -0.223387 0.237852 0.722501 0.420691 -0.240915 -0.616318 0.727764 -0.494397 0.59938 0.059746 -0.742222 0.0350467 -0.407332 0.462215 -0.0312789 -0.358091 0.242306 0.403723 1.15743 -0.303566 0.638898 0.145581 0.422866
達陣 -0.274371 -0.213211 -0.0723613 -0.234213 -0.46634 -0.540277 -0.11953 0.0865121 0.0532283 0.250893 0.174237 0.0829362 -0.748152 0.539858 -0.0526718 -0.290014 0.112245 0.119844 -0.24757 0.466884 -0.0554524 -0.0385252 -0.244816 -0.223665 0.28863 -0.316069 -0.0929875 0.0215861 0.0907581 0.239646 0.291167 -0.125887 0.600669 0.0679794 0.01224 0.225186 0.468359 0.315969 -0.0432622 0.0455461 0.372313 0.385707 0.54371 -0.273723 0.0252916 0.132084 0.0762929 -0.569589 0.080818 0.0757825 0.357538 0.499586 0.11211 -0.070058 0.229427 0.381492 -0.177097 0.173625 0.486943 0.116844 0.137487 -0.260531 -0.267181 0.409711 0.213844 0.0556284 0.70027 0.083946 0.0565533 -0.161945 -0.381623 -0.541183 -0.155056 -0.133934 0.035513 -0.0245562 0.431384 -0.0445637 -0.0846309 -0.240985 0.231824 0.147784 0.533292 0.430135 -0.232529 0.125245 0.202791 -0.0768137 0.128612 -0.309079 0.601844 0.0809796 -0.114313 -0.28111 -0.334489 -0.166513 0.43091 0.222777 -0.13492 0.232323 0.371971 0.150838 -0.41911 -0.438044 0.0766172 0.395744 -0.622199 -0.232981 0.394361 -0.156086 -0.40277 0.0345844 -0.650446 -0.045123 0.0874948 -0.216383 0.538582 0.167164 -0.0535425 -0.646816 -0.366862 -0.166326 -0.0676073 -0.724267 -0.350097 -0.394154 -0.291783 0.384702 0.0936528 -0.356052 -0.198243 0.723558 0.346217 0.13818 -0.159969 -0.709838 -0.259753 -0.0386519 0.199571 0.272415 -0.152947 -0.428108 -0.158739 0.125142 -0.238263 0.0878579 0.0128476 0.687634 0.16073 0.286857
妹妹 -1.0702 -0.067313 0.57876 0.0169633 0.374123 0.271391 0.0958731 -0.367944 -0.467205 -0.00265653 -0.335165 0.431539 -0.114985 0.236908 0.506933 0.863547 -0.290327 -0.0580482 -0.0785923 -0.213274 -0.274592 -0.530628 0.206129 0.509958 0.753242 0.0223083 -0.291089 0.306875 0.69232 -0.147712 -0.683008 0.0421228 -0.669883 -0.639637 0.423801 0.235164 0.395258 -0.549141 0.0728657 0.176282 0.0851993 -0.112538 0.625703 0.0495807 -0.351707 0.437286 -0.174225 0.636187 -0.301274 0.18843 0.026603 0.644217 -0.861279 -0.317419 0.686822 0.474513 0.0710522 -0.174379 -0.164461 0.16553 -0.461478 0.479322 -0.106289 -0.408592 0.650592 0.0793556 -0.0144751 0.227088 -0.375919 0.671809 0.0892371 0.493374 0.327774 -0.0195565 0.32871 0.711594 -0.14165 0.385837 -0.569156 0.491562 -0.422566 0.108097 0.548106 -0.128908 -0.401848 -0.0240636 0.771109 0.949549 0.597169 -0.496681 -0.0693859 -0.26127 0.150596 -0.105688 -0.161973 -0.374521 -0.782991 -0.490968 -0.427965 -0.127457 0.860401 0.825544 -0.970886 0.608678 -0.216378 -0.189207 0.0748014 -1.21066 -0.503497 -0.0464802 0.356161 0.382092 -0.39031 0.0626282 -0.144476 0.0884603 -0.327664 0.553188 -0.250124 -0.226595 0.522953 -0.234036 -0.240333 0.204054 -0.255345 -0.427736 -0.398242 -0.116779 0.342681 -0.300154 0.335915 -0.607073 -0.831268 0.333371 0.592732 -0.0660343 0.539757 0.221408 -0.502485 -0.184876 -0.287539 0.259086 -0.174576 -0.475441 0.395554 -0.375858 -0.185161 -0.631011 -0.351846 -1.0476
闌尾 -0.322457 0.0326519 0.218837 0.803746 -0.152715 0.293779 0.133954 0.2079 -0.197474 -0.389832 -0.30077 0.14833 0.0355 0.281089 0.467648 -0.0369548 -0.346901 0.0757876 0.517626 0.294842 -0.56577 0.0657826 -0.679093 -0.00939726 -0.512446 0.546213 -0.145656 -0.164224 -0.337111 0.0611754 0.302275 0.245228 0.309375 -0.101576 -0.452455 0.418802 0.303925 -0.0143969 -0.565217 0.310033 -0.0719205 0.100975 -0.118334 0.150508 -0.554922 -0.288848 0.297318 0.345016 0.0273491 0.36887 0.576027 0.140575 0.240886 0.0520228 -0.108496 0.228159 -0.0863068 0.423797 -0.159317 -0.146981 -0.168389 -0.521414 0.167622 0.332477 -0.209349 -0.244638 0.77873 0.298692 -0.239014 -0.672028 -0.432537 -0.0502378 -0.313866 -0.468246 0.146588 0.0219139 -0.103755 0.0989577 0.25133 0.00156337 0.352136 0.470275 0.402355 0.57981 -0.135283 -0.253938 -0.295266 -0.0374822 0.471547 0.457013 -0.286398 0.0309937 -0.484086 0.594804 -0.227128 -0.365619 -0.0685156 0.0702391 -0.802198 0.195324 0.0810352 -0.228351 0.00673147 -0.302638 -0.0843923 0.00674266 0.188596 -0.0910814 0.0949776 0.103401 0.267625 -0.347048 -0.298408 0.446531 -0.33541 -0.234777 0.568976 -0.221168 0.965858 0.235782 -0.374371 0.592443 -0.0131169 -0.165871 -0.283765 -0.187504 -0.205888 0.774772 0.226051 -0.200846 -0.291997 -0.0048368 -0.415205 -0.184925 -0.175842 -0.211947 0.0871415 -0.408638 -0.0436126 0.236454 -0.00964647 0.306666 0.0157911 -0.616456 0.0173895 0.454518 -0.169215 0.172512 0.0204683 0.321266
泰姬瑪哈陵 -0.209666 0.0363314 0.0218379 0.592786 -0.480059 -0.390919 -0.320248 0.0920736 0.423134 0.700176 0.173809 -0.0561642 -0.0690025 -0.0373382 0.204272 0.268731 0.460221 -0.171783 0.594685 0.0878195 0.145305 -0.202861 0.170169 -0.375693 -0.0851863 -0.0973796 0.628255 -0.124668 -0.61964 -0.139129 0.273274 -0.0619633 0.224705 0.0936741 0.0502636 -0.367621 0.164674 0.0604924 0.494675 -0.538295 -0.336049 0.133111 0.115685 0.495661 -0.451624 -0.198636 0.142733 0.142642 -0.128473 -0.259679 -0.0355254 -0.549229 0.00787676 0.122029 -0.207264 0.0952867 0.149847 0.554078 0.0213796 -0.14444 0.214997 0.287616 0.168678 0.24234 0.0355521 0.0169892 0.0713971 0.121124 -0.617472 0.20839 -0.187885 -0.31545 -0.112167 0.147638 -0.303722 0.185029 0.0641563 0.0519937 0.184956 -0.215857 0.146631 0.235693 -0.544735 0.190741 0.0726117 0.0424747 -0.535574 -0.355798 0.16927 -0.0321237 -0.251665 0.22905 -0.104752 -0.242355 -0.496053 -0.301877 -0.0166406 0.0669419 0.184825 -0.0260371 -0.447119 0.145415 -0.313411 0.0470772 0.469827 -0.497458 -0.126172 0.265362 0.366871 0.211174 -0.223432 0.152416 0.277086 -0.191592 0.110262 -0.154048 0.166538 -0.0632687 -0.407786 0.609779 -0.441998 -0.240202 -0.198476 0.383426 -0.0790651 0.0645396 -0.0452108 0.552574 -0.270932 0.0388429 -0.368335 -0.210162 0.128696 0.438747 -0.063277 0.114917 0.520753 -0.180749 0.0557422 -0.121736 -0.272207 -0.130739 0.283204 -0.511995 0.0386147 -0.0496468 0.144639 0.0786803 -0.271708 0.252825
歐巴馬 0.43908 -0.212511 -0.254684 -0.0948258 -0.593139 -0.0591809 0.277453 0.387218 -0.635552 0.308515 0.315815 -0.110239 0.00390312 -0.621951 -0.282428 0.0412345 -0.582249 -0.0209047 -0.170672 0.395892 -0.025805 0.290359 -0.586786 0.989484 -0.324362 -0.559046 -0.246236 -0.139693 -0.107533 0.140897 0.0871584 -0.145632 0.260518 -0.271457 0.38541 -0.226913 0.128829 -0.258703 -0.2382 -0.301823 0.485374 0.177176 0.498415 -0.0894686 -0.488945 0.725745 0.557786 0.224685 -0.37532 0.533147 -0.124212 0.0800003 0.00380911 -0.19542 -0.51542 -0.0401554 -0.0545191 0.0335446 0.167946 0.0788032 0.130071 0.464483 -0.26112 0.396563 -0.213286 -0.419384 0.282731 -0.138672 -0.194076 0.0618623 -0.127339 0.261998 -0.0465557 0.136749 0.117796 0.00227689 0.0491832 0.389633 -0.0752158 0.675824 -0.30335 0.134995 0.117075 -0.249031 0.540588 -0.147461 0.0125072 0.374839 -0.446761 0.0570214 -0.120484 0.0248733 -0.0692871 0.0343179 -0.0622814 0.00237925 -0.439119 0.694371 0.0507316 -0.0774355 0.305457 -0.133384 0.727813 0.0233691 0.317589 0.233241 0.683545 -0.397677 0.589415 0.410144 -0.273832 0.295555 -0.135333 0.732638 -0.453437 -0.226241 -0.918131 0.421838 -0.0924554 -0.277899 -0.396972 0.178445 -0.552531 -0.246761 0.400569 0.0585114 0.0332427 -0.472116 0.772874 0.535304 0.198426 -0.157263 -0.0272981 0.284891 -0.0658752 -0.540857 0.123616 -0.295666 0.304702 -0.326123 -0.0457006 0.313979 -0.073831 -0.593842 0.288914 -0.74652 -0.38961 -0.917061 -0.396728 -0.485943
426 -0.67636 0.735877 -0.302075 0.467022 -0.541568 0.416562 -0.599509 -0.519051 -1.03984 -0.163882 -0.0125561 0.510346 0.0951315 -0.273745 -0.141941 0.629452 -0.118575 0.485999 0.630966 0.258018 -0.854036 -0.0929355 -0.845871 0.702137 -0.262378 -0.614392 -0.344807 -0.482398 0.707846 -0.146743 1.04186 -0.658679 0.286323 -0.516742 0.119677 0.412829 0.724512 -0.859552 0.359474 -0.500069 -0.0167463 -0.59553 -0.133497 -0.452142 -0.52949 -1.10373 0.682385 0.0561809 -0.341658 -0.257178 -0.098665 0.323087 0.272173 0.165181 -0.366553 0.368043 0.11619 -0.527908 -0.844481 -0.0461174 -0.182437 -0.254727 -0.514069 -0.629996 -0.451211 0.27456 0.484332 -0.126895 0.251908 0.0180457 -0.581281 -0.434385 -0.0722564 0.186686 -0.385901 -0.302059 -0.633728 -0.662033 0.343637 0.549493 0.810734 -0.0791987 -0.454669 0.0113487 -0.21598 0.848112 0.255039 -0.101482 0.0745841 0.297613 0.0386186 0.364627 -0.0329662 0.0354761 -0.573713 -0.619493 -0.268694 0.0294541 0.0397302 -0.442214 0.900066 0.0656144 0.709489 -0.00669293 -0.317781 0.898447 -0.425775 -0.495828 0.681257 -1.03074 -0.0829425 -0.584175 -0.250997 0.0061243 0.72271 0.445704 -0.377558 -0.435395 0.49329 0.219067 0.444491 -0.29258 -0.789017 -0.346498 -0.288245 -0.213422 -0.855044 -0.341431 -0.454858 0.184975 0.443532 0.743515 0.566728 0.377699 -0.301851 -0.657439 1.06211 -0.13381 0.0342951 0.436217 0.0812445 -0.290233 -0.248734 -0.322961 0.740364 -0.754072 -0.717291 -0.296177 0.108948 0.0931082
日本 -0.0420336 -0.56776 -1.42412 -0.177023 -0.0312845 0.213661 0.0181556 0.00638236 0.740334 -0.482708 -0.334961 -0.363254 0.617211 -0.645315 -0.613628 -0.204672 0.0869521 0.312375 -0.648893 0.0458884 -0.422011 -0.593519 0.010103 0.198354 0.342868 -0.258224 -0.870886 -0.345577 0.901691 -0.595597 -0.970221 -0.653956 0.755194 -0.037699 -0.153051 -0.199458 0.375092 -0.235987 -0.104995 0.916576 -0.21968 -0.582842 -0.150975 0.118899 -0.434743 -0.686018 0.799156 0.0199514 -0.811912 -0.0696297 -0.500204 0.151096 0.0423942 0.0315058 -0.828519 0.355565 0.594484 -0.0165626 -0.790984 -0.360731 -0.704358 0.213831 -0.970316 -0.534744 -0.411291 0.491969 -0.111923 -0.0877319 -0.189825 0.785516 0.418441 -0.258417 0.135043 -0.200404 1.12259 0.597735 -0.959477 0.588719 -0.563869 0.413873 0.00623819 -1.19753 0.229022 -0.620016 0.646727 -0.161506 0.839777 -0.698543 0.0745158 0.163018 0.741943 0.0229184 0.863214 0.608092 0.155254 0.414509 0.190031 1.19548 0.664675 0.353041 0.454589 -0.0374107 0.851288 0.534314 0.0617842 0.487466 0.40317 0.295361 -0.289781 -0.371949 0.0976121 -0.123443 -0.0780365 -0.498396 0.0847796 -0.667848 0.280385 -0.521592 0.0526896 -1.01641 0.628246 0.253027 -0.501715 0.180769 -0.273911 -0.0507864 -0.429583 -0.431529 -0.395423 0.708482 0.838122 0.4204 -0.151656 0.810116 0.488006 -0.0829053 0.78433 0.724642 -0.526213 -0.726399 0.118973 0.380916 0.164354 0.0386115 0.379547 0.130048 -1.1201 -0.760388 0.331833 -1.22808
生病 -0.82349 0.18233 0.0185669 0.337965 -0.0151208 -0.106584 -0.17667 0.0509269 -0.579395 -0.0407034 0.242837 0.322271 0.0991604 0.0999567 0.0868511 0.387905 0.769511 0.112483 0.599435 -0.168713 -0.0475462 -0.204048 0.143588 0.127733 0.413089 -0.476269 -0.228516 0.200066 -0.423276 -0.536954 -0.631899 -0.344965 -0.517739 -0.451328 -0.210178 -0.384965 0.316838 0.150958 0.351855 -0.183376 0.214794 0.241265 0.195414 -0.331509 -0.255129 0.0700062 -0.165697 0.0696636 -0.641279 0.419439 0.142637 0.0708944 0.0719357 -0.226189 0.506638 0.314758 -0.0525866 0.282071 -0.151065 -0.103695 -0.146522 -0.481679 0.124172 -0.44016 0.450887 -0.352264 -0.229402 0.267882 -0.1466 -0.0982054 -0.237978 0.356363 0.234907 -0.0615887 -0.0118526 -0.141115 -0.50535 0.060932 -0.0378668 -0.557347 -0.0243702 -0.0836614 0.28525 0.0329903 0.097073 -0.532317 -0.076858 0.438634 1.06317 0.110184 0.53543 0.872792 0.0732359 -0.0677334 0.0783355 -0.228047 -0.139037 -0.261865 -0.93246 1.04565 0.484773 -0.122973 0.13859 0.113152 0.553237 -0.200636 0.585917 -1.14194 -0.467162 0.564334 0.496645 0.604614 0.339459 -0.288727 0.0222911 -0.154064 0.319714 -0.0616248 0.0326049 0.176224 -0.0359891 0.301063 -0.581148 0.280346 -0.1897 0.704058 0.0830984 -0.0836385 -0.10562 0.0416841 0.5307 -0.35933 -0.191271 -0.145258 0.431915 -0.149994 -0.272429 0.00564738 -0.207566 -0.545383 -0.0305674 -0.356357 -1.00913 -0.277683 0.472665 -0.783229 -0.4167 0.00194497 0.00175857 -0.372513
頭痛 -0.40449 0.356608 0.0310055 0.0744611 -0.555307 -0.199926 -0.474612 0.093722 -0.656508 -0.0053734 -0.207442 0.147002 -0.159608 -0.0961188 0.0235015 0.471107 0.0421346 0.656618 0.610135 -0.0769074 0.214722 -0.27704 -0.127613 -0.156135 0.0768636 0.116936 0.394732 0.160279 0.158404 -0.00802018 -0.41771 -0.51085 -0.586106 -0.164257 -0.34378 -0.304477 0.262138 0.0034916 0.251813 0.0142304 -0.0757906 0.196288 0.0361307 0.357335 -0.134219 0.239982 -0.387787 -0.0430366 -0.0745152 0.219278 -0.464838 -0.181195 0.361208 -0.244167 -0.567662 0.00858659 0.0377692 0.424633 0.0511728 0.329874 -0.235632 0.104049 0.0153471 -0.266121 -0.108975 -0.0641143 0.170392 -0.32293 0.226282 -0.163269 -0.124629 0.0762629 -0.456849 0.14015 0.431114 -0.468511 -0.567826 0.28626 0.324635 0.00351993 -0.00801533 0.103596 -0.58866 -0.116669 -0.0192435 0.0603569 -0.516765 -0.425858 0.0516745 0.272366 0.160721 0.255059 -0.100772 0.414923 -0.472541 -0.351704 -0.0306004 -0.389549 -1.00108 0.82899 0.053362 0.0319298 -0.359043 0.549587 0.179011 0.0621808 0.422109 -0.393251 0.306676 0.462614 0.264628 0.0807069 0.0863815 -0.191342 0.497296 -0.3538 0.0537763 -0.310039 -0.103528 0.418049 0.196636 -0.0377304 -1.08519 -0.133097 0.0868166 0.548543 0.74401 0.485876 0.317855 -0.469313 -0.0408061 -0.118096 0.245682 -0.130087 -0.126113 0.346291 -0.633304 -0.53099 -0.299746 -0.418525 0.379139 -0.00921573 -0.311142 -0.215634 0.326443 -0.508728 -0.0764101 0.196084 0.45599 0.0162772
繼母 0.415045 0.0359001 0.917185 -0.0120322 0.31613 -0.169365 0.529555 -0.118983 0.117539 0.452028 -0.0857961 0.0202956 -0.039946 0.255511 0.0138846 0.599788 -0.37003 -0.560643 -0.290464 -0.0258316 -0.280543 0.122411 0.0437349 0.0527519 0.287977 -0.0209724 0.16482 0.724389 -0.467146 -0.414435 -0.208848 0.403649 0.0405682 0.0444136 -0.172456 -0.48694 0.209485 0.180505 -0.117511 0.414184 -0.272581 0.023946 0.0576695 -0.388572 -0.159772 -0.118488 -0.180585 -0.0497826 -0.112969 0.246686 0.156068 -0.0532558 0.26915 -0.00527551 -0.106879 0.136036 0.132658 0.0860125 0.209308 0.0690705 -0.0221618 -0.45667 0.210018 -0.215758 -0.0418839 -0.15539 0.374213 -0.0120743 -0.420497 0.214775 -0.174293 -0.454482 -0.383389 0.224933 -0.154066 0.481528 -0.426316 -0.274687 -0.226217 0.268152 -0.45327 0.484206 -0.24049 -0.0182089 0.055541 0.208026 -0.124509 0.421346 0.756204 0.380017 0.0532291 0.0183185 -0.451849 -0.125971 -0.456982 -0.302621 -0.015559 0.251021 -0.464001 0.122603 -0.127537 -0.158316 -0.11788 -0.0952056 0.242169 -0.285086 0.591007 -0.282934 -0.0639025 0.0249729 -0.000281453 0.448415 0.000302406 0.0677567 -0.369309 -0.127075 0.305606 0.181669 0.130175 -0.109697 0.111694 0.282347 0.484868 -0.469916 0.398459 0.35959 0.345511 -0.427208 -0.425565 0.427933 -0.0715123 0.325656 -0.227845 0.00381853 0.169535 -0.307582 -0.43358 0.247735 -0.1573 0.3879 -0.0959064 0.311313 -0.316863 -0.71693 0.48904 -0.420236 -0.314139 0.192894 -0.138407 0.445099
米粉 -0.683898 0.518027 -0.114254 -0.336335 -0.384627 -0.225915 -0.378423 -0.444953 -0.507632 0.320343 0.288404 -0.346974 -0.0190309 -0.345172 -0.235531 0.58731 1.39533 0.253622 0.149127 -0.0945485 0.168302 0.0196365 0.0562625 -0.397361 -0.334296 -0.277803 0.221936 -0.0797521 0.435624 0.0991292 0.355612 0.0262908 -0.13321 0.177969 0.209675 0.585548 0.336569 0.282482 0.576437 -0.345226 -0.0647984 -0.527904 0.737809 -0.518045 -0.230884 -0.0465689 -0.234008 0.447387 0.0769857 -0.160501 0.932925 -0.145634 0.133469 -1.0841 -0.0062217 0.366074 0.957423 0.465713 0.145121 -0.25182 -0.0232068 -0.722789 0.0221692 -0.447724 0.546543 -0.166871 -0.693547 -0.542841 0.152609 0.362578 0.220562 -0.247598 -0.123541 0.127314 -0.391137 -0.735669 0.119116 0.375258 0.259359 -0.537195 -0.75686 -0.626804 -0.162959 -0.879631 0.00795894 -0.853131 0.137741 -0.323742 -0.291801 0.187449 0.393009 -0.131317 0.152734 -0.307637 -0.472338 0.08334 0.441804 -0.567853 -0.0906419 -0.428169 0.00485487 0.77956 0.759671 0.00244982 -0.53783 0.248954 0.373366 -0.251511 0.295596 -0.177286 0.612594 -0.21781 -0.0877583 -0.643633 -1.08583 0.021036 0.764588 1.26167 -0.0592311 0.316485 -0.0681163 0.528823 0.41416 0.880381 -0.53564 -0.696566 0.810479 0.295993 0.914123 0.393625 0.167799 0.595984 0.33676 0.489584 -0.145557 -0.456761 0.260574 -0.153479 0.205305 0.25288 0.0299887 0.724256 -0.133986 0.533763 0.307455 0.716247 -0.16919 -0.308542 0.0144562 0.0134213
老師 -0.805632 -0.537291 1.17305 0.490912 0.307941 0.756887 -0.447983 -0.221346 -0.0248525 0.112653 -0.17999 0.611048 0.0257556 -0.926344 -0.313801 -0.0200444 0.103984 -0.0728081 -0.386243 -0.668102 -0.259729 -0.439781 0.179905 0.406938 1.00335 0.164378 -0.642704 -0.363242 0.140208 0.306119 -0.539039 -0.554842 -0.172851 -1.12976 0.574945 -0.449699 0.129206 0.224153 0.203603 0.448783 -0.59265 0.190584 0.870005 0.600721 -0.0427883 0.467658 0.0425876 -0.423467 -0.94527 0.368167 0.134403 -0.114518 0.018649 -0.552506 0.216746 0.38355 0.601948 0.0696346 -0.214424 0.297053 -0.698422 1.05758 -0.235996 -0.290412 0.396841 0.445998 -0.819335 -0.087858 -0.0465185 1.20392 0.591268 0.369666 -0.440563 -0.34778 0.0915993 0.304767 -0.69163 0.195607 -0.653927 0.601366 -0.373094 -0.487796 0.372131 0.336999 -0.227654 -0.525519 0.40831 0.872282 0.0135165 0.380951 0.35271 0.127879 -0.361748 0.0145793 0.149581 -0.554992 -0.745932 0.119142 0.265023 0.341556 -0.186099 0.794347 -0.389072 0.132586 -0.417913 -0.528852 -0.429062 0.10999 0.428392 -0.691196 0.56461 0.34239 -0.284634 0.524011 -0.195006 -0.464141 0.0133524 -0.10532 -0.229711 -0.274714 0.811362 0.50957 -0.697989 -1.04882 -0.408933 0.256433 -0.169754 -0.20039 -1.00798 0.210466 0.428919 -0.55187 0.366262 0.405787 -0.805329 -0.0457829 0.387113 0.445342 -0.778067 -0.366516 -0.352345 0.247869 -0.353428 -0.29891 0.933829 -0.120323 -1.2248 0.554561 0.655429 -0.34704
神隱少女 -0.740274 -0.169044 0.182413 -0.479271 -0.481955 -0.0107751 0.174186 0.741044 -0.622365 -0.429822 0.5586 -0.226703 0.514363 0.113715 -0.0914332 -0.255773 -0.26002 0.348967 -0.11654 0.108147 -0.416448 0.0699506 -0.30801 -0.00228992 -0.74998 0.499048 -0.0498867 0.233532 -0.402448 -0.0680031 0.270756 -0.337049 0.514802 0.169702 0.33062 0.452427 0.0616658 0.143341 -0.083544 -0.220601 -0.0255211 0.491137 0.375953 -0.0405013 -0.378826 0.00175495 0.0310498 0.352367 0.273765 -0.354125 -0.776523 -0.307901 0.517112 -0.202437 -0.0555991 0.579596 0.473995 0.190078 0.174933 -0.200711 -0.50782 -0.333548 -0.0747347 0.143341 -0.0433337 0.136312 -0.147662 0.757355 0.426519 -0.665733 -0.224279 -0.00764386 -0.339883 -0.348703 0.344853 -0.212835 -0.23485 -0.0821873 -0.0633556 -0.639354 0.847484 -0.380706 0.211617 0.368849 0.422442 -0.381407 0.582875 0.597115 0.218039 -0.218797 0.867678 -0.429877 0.301353 0.262257 0.249772 -0.0823264 -0.320568 0.375759 0.196697 0.365595 0.227767 -0.0818901 0.401539 -0.630367 -0.289956 -0.0181451 0.166025 -0.429053 -0.497327 0.658276 -0.0393016 -0.267598 0.564437 0.186727 0.33107 0.0113666 0.071977 0.1512 0.232639 0.0285469 -0.18837 -0.278944 0.30253 0.316902 0.467747 0.286278 0.451754 -0.833944 -0.138404 -0.0680995 -0.353553 -0.321127 -0.105339 0.199669 0.810961 -0.634536 -0.43962 -0.573723 -0.149771 0.206947 0.0765357 -0.186087 0.0559853 -0.250994 0.214265 -0.0218644 -0.112118 0.12448 0.150124 0.328704
楓葉 -0.765871 0.485302 -0.00586332 -0.116876 0.113368 -0.1298 -0.321902 0.383189 0.237699 -0.393173 0.407859 -0.501996 0.607281 -0.340623 -0.142461 0.128828 -0.0725273 0.270913 0.115012 0.00116858 -0.263766 0.0402158 -0.136345 -0.317061 -0.269012 0.842957 -0.158976 -0.0286096 -0.00370189 0.230132 0.20247 -0.0994553 -0.109216 -0.0488841 -0.173757 0.409724 0.195361 -0.168545 -1.11158 0.0393509 -0.270433 0.131645 -0.576867 0.578865 -0.0797455 0.216135 0.150653 0.149567 0.363403 -0.53048 -0.327362 0.400494 -0.0289781 0.0774215 -0.162056 0.15781 0.104291 -0.118693 0.336017 -0.118604 -0.148072 -0.0235022 0.364532 0.221599 0.0244582 -0.0560786 0.153111 0.221176 -0.270802 0.403429 -0.14376 -0.203481 0.630217 0.370673 -0.427416 0.0538531 -0.524519 -0.149559 0.341743 0.129322 -0.117109 0.00116767 0.25933 -0.487112 0.312227 -0.48841 -0.193404 0.736367 -0.066259 0.482715 -0.236061 0.13035 -0.257306 0.00815515 -0.488595 0.167044 0.560245 -0.10322 0.688567 0.515541 -0.0608 0.317499 0.147891 -0.0378682 0.244125 -0.685639 -0.101071 -0.177686 -0.370406 0.0296854 -0.145505 -0.228142 0.0193825 0.142073 -0.257853 0.46872 0.317382 0.00656105 0.068884 0.144255 -0.023311 -0.546809 0.228147 -0.120508 -0.0146283 0.0431663 0.207523 0.422129 -0.0640896 -0.212511 -0.0619273 0.100123 0.314075 -0.263699 -0.00747611 -0.30738 -0.366075 0.152201 -0.159582 0.204185 0.298503 -0.162919 0.319315 -0.319754 0.180524 -0.123912 -0.133084 -0.280204 -0.790778 0.156713
假 -0.523403 0.711419 -0.59575 -0.0137233 0.215876 0.991488 -0.0235342 -0.0273871 0.429874 -0.886773 -0.660542 0.434225 -0.127271 0.0259092 -0.86907 0.0102077 -0.30268 -0.864437 0.517057 -0.0524678 -0.064381 -0.888115 -0.341477 1.02585 -0.155152 -0.968929 -0.641958 -0.251518 0.457521 -0.1533 -0.442448 -0.933219 0.222948 -1.02249 0.914378 -0.0705944 -0.877596 -0.30983 -0.316365 0.887534 0.577527 -0.00679931 -0.53318 -0.889769 0.307532 -0.195191 -0.0613275 -0.589031 -0.235954 0.311569 -0.654332 0.321682 -0.877066 -0.191826 -0.186805 -0.0623021 0.26377 -0.377152 -0.508079 -0.367442 -0.310235 0.287119 -0.216067 -0.463413 -0.0625786 -0.580391 -0.397203 0.761842 -0.366975 0.424171 1.41614 -0.209253 -0.452772 0.205866 0.184243 0.102925 -0.765084 0.771862 -0.187455 0.463804 -0.109866 1.1743 -0.102558 -0.0820344 -0.100683 -0.132371 -0.16821 0.357478 -0.312561 0.289271 0.681938 0.618599 0.131615 -0.776419 0.571809 0.0342019 -0.717031 -0.12067 0.0643825 -0.00749428 0.0738535 -0.547228 0.390648 0.124722 0.18726 -0.253824 -0.631299 -0.889571 -0.0775701 0.0801211 0.619853 0.042126 0.423168 0.255489 -0.0424488 -0.477805 -0.00327326 -0.316449 0.111503 -0.315712 -0.191623 0.45018 -0.934678 0.352827 -0.313184 -0.141706 -0.471129 0.36333 0.255146 0.254118 0.493349 0.272806 0.214423 -0.218662 -0.218008 0.437634 -0.0640749 0.210736 -0.306177 0.0621544 -0.446086 -0.0173748 -0.978277 0.204247 0.160174 0.0497449 -0.861224 -0.402499 0.524749 -0.69438
生命能量 -0.528134 -0.179944 0.0397072 0.0956758 -0.153096 0.000456959 -0.134123 -0.0332424 -0.596575 0.115253 -0.224451 -0.133919 -0.0568816 0.345714 0.136246 0.297792 -0.281727 -0.329137 -0.197095 0.524042 0.0159122 0.493028 0.214114 0.0398928 -0.159488 -0.329879 0.0675508 -0.226292 -0.0740025 0.0330219 0.437335 0.287115 0.550419 0.469718 -0.139361 0.605469 0.0623808 0.0819539 -0.0989324 -0.192494 -0.277802 0.0170207 0.231354 0.622197 -0.277871 -0.253719 -0.0563088 0.240207 0.0849163 -0.157184 0.0744691 -0.186891 -0.0715911 0.0904485 0.311885 0.0492884 -0.239387 0.251258 0.124341 0.0795081 -0.30728 0.0707966 0.150511 -0.0684097 0.0465191 -0.377427 -0.201157 0.215306 -0.165218 -0.192777 0.0536511 -0.318002 0.163578 0.0309922 -0.634666 -0.00436449 0.3329 -0.242422 0.25523 -0.0171934 0.160428 0.00398273 0.0307043 0.545143 -0.379162 0.293 -0.398512 -0.197007 0.408831 -0.411712 0.0259397 -0.0221181 0.166286 0.062859 -0.0399758 0.00275281 -0.152952 -0.00591632 0.118746 -0.132779 -0.2263 0.137024 -0.372506 -0.259078 0.197354 -0.146755 -0.262052 0.644845 0.501077 -0.327305 -0.248744 -0.186001 0.201252 -0.432347 0.151996 -0.0952922 -0.587335 0.222929 0.340747 -0.211274 -0.0721792 0.19916 -0.0494307 0.338068 0.0636899 0.0288034 0.181223 0.191246 0.193797 0.152518 -0.282351 0.12731 -0.00590477 0.0872119 0.0113667 0.153552 0.730459 -0.0423833 -0.212113 -0.14922 0.0812739 -0.0988677 -0.31497 -0.483841 -0.0265152 0.337423 -0.0834009 0.410845 -0.394256 0.133437
忽必烈 0.410252 -0.382455 0.20448 0.154346 0.484045 -0.193275 -0.00355051 0.130397 0.0794775 0.549243 -0.236596 0.176556 -0.0638023 -0.0786095 0.365507 -0.590869 -0.205903 -0.278592 -0.353438 0.32208 -0.319051 0.162911 -0.226182 -0.46754 -0.0145994 0.138137 0.0601496 0.322457 -0.129992 -0.000454709 0.508625 0.286232 0.0172479 0.211514 -0.52804 0.235989 0.126211 0.139514 -0.366203 -0.0711811 0.0359239 0.383659 -0.264409 -0.449462 -0.399797 -0.583978 -0.362169 -0.00942203 -0.0184553 0.0999495 0.216311 0.100422 -0.201539 0.182166 0.48007 0.127963 0.0802927 -0.342454 0.0926629 0.282665 -0.269743 -0.103119 0.0555961 0.361178 -0.209822 -0.101292 0.0996198 -0.101448 0.372337 -0.667036 -0.426132 0.0126253 0.190789 -0.0784046 -0.485591 -0.199857 -0.108719 -0.359409 -0.202811 0.403226 0.085499 0.162236 -0.00831947 -0.13127 -0.0602681 -0.399246 0.186463 0.698437 0.743028 -0.607536 -0.0406316 -0.0831218 -0.395064 0.251318 -0.0588432 -0.426803 0.523166 -0.511101 -0.072291 -0.232303 -0.438828 -0.42617 -0.24528 -0.126203 0.183267 -0.226312 -0.0494153 0.143151 -0.297469 -0.285589 -0.186825 -0.00677188 -0.346768 -0.315842 -0.0503076 -0.110879 0.173974 0.0842655 0.0804105 -0.297634 -0.0876345 0.0682262 -0.11454 0.384926 -0.204818 0.319462 -0.311782 -0.0785998 -0.198535 0.0280169 -0.418836 -0.283124 -0.19061 0.282372 0.361054 -0.210175 0.259574 0.303998 -0.13227 0.25612 0.174496 0.14727 0.0337938 0.189076 0.0633521 -0.579728 0.000205617 0.0987519 0.0186501 0.000623345
男生 -0.189945 0.0139984 0.0445701 0.214717 0.111247 0.666732 0.633571 -0.798525 -0.650857 -0.816234 -0.519347 -0.560043 -0.151331 -0.312397 0.00947142 0.0349167 0.0108954 0.345181 0.612229 -0.693497 -0.595719 -0.53446 -0.238549 0.0148749 0.810121 0.195759 -0.203899 -0.322791 0.500585 -0.747286 -0.568605 -0.21663 -0.152016 -0.402571 0.849262 -0.781281 -0.14441 -0.321311 0.553225 0.975303 -0.222995 0.260598 1.14697 -0.0208374 -0.265841 0.889807 -0.160126 -0.6987 -0.488806 0.45721 -0.461662 0.198913 -0.73043 -0.756094 0.340261 0.365758 -0.0292296 0.231191 -0.302063 0.563359 -0.596463 -0.883873 -0.329687 -0.363002 0.663537 0.536537 -0.424727 1.24797 -0.073406 0.475233 0.604425 0.588034 -0.285524 -0.112518 0.59 0.260673 -0.118807 0.618569 -0.342821 -0.100638 0.65069 -0.568052 0.730718 -0.376488 -0.447192 -0.178148 -0.00335895 0.00710447 0.641498 0.312998 0.748084 0.138756 0.487695 -0.334487 -0.350049 -0.0170785 0.352384 -0.236233 -0.0450138 0.067198 0.881409 0.0693228 -0.711632 0.0631392 -0.2992 0.327433 -0.414729 -0.759991 -0.0912495 -0.522962 -0.222642 0.143939 0.456337 0.0419025 -0.170779 -0.037644 -0.127445 0.377656 -0.606339 -0.711865 0.135345 0.536924 -1.15363 0.143091 -0.662222 -0.481716 -0.577195 -0.439843 -0.199963 -0.162976 0.0681409 -0.936672 -0.504592 -0.222439 -0.0774887 0.70449 0.442961 0.936022 -0.763411 -0.49009 -0.0602332 0.387203 -0.30029 0.828248 0.426244 0.0431534 -0.187748 -0.4696 0.389341 -0.912546
狄鶯 0.200593 0.0726652 -0.114625 0.101376 0.392077 -0.0583317 0.377917 0.170887 -0.389851 0.01957 0.634669 0.287315 0.0150268 0.122687 0.463317 0.424377 0.0683904 0.069354 0.512077 0.253928 0.000823036 0.0312714 -0.154933 -0.00391917 0.124053 0.0491523 -0.00676614 0.00182354 -0.192003 -0.297846 -0.493719 0.156248 -0.242953 0.244069 -0.0460697 -0.0756758 0.400637 0.017628 0.0020936 0.192172 -0.450904 -0.123629 0.0410184 -0.0928899 -0.582046 -0.0741729 0.0141844 0.471578 0.356306 -0.361748 -0.379314 0.141877 0.000870466 0.161734 -0.285715 -0.0655728 -0.356171 0.587286 0.36921 0.142055 0.172008 0.177604 0.163432 0.172077 -0.130129 -0.476108 0.134662 0.0282578 -0.0807848 0.109357 0.189325 -0.480452 -0.0914855 0.258879 -0.15359 -0.111813 0.310916 -0.177555 0.0872791 -0.0266715 0.318121 0.178033 -0.189179 -0.42512 0.571769 -0.032293 -0.380381 0.099298 -0.0523942 -0.032045 -0.184354 0.34661 -0.374142 0.232829 -0.168227 -0.259368 -0.0947469 -0.413769 -0.000650182 0.230444 -0.272051 0.0275477 -0.111196 0.145252 -0.347727 0.125979 0.146997 -0.308574 0.0558181 0.291016 -0.0772112 -0.188503 0.193055 -0.412837 -0.148346 -0.274871 0.0565426 0.136543 0.198714 0.260474 -0.184574 -0.0629317 -0.0988331 0.307613 -0.0831932 0.263036 0.0578938 -0.0462807 -0.323776 0.0396869 -0.108509 -0.0165726 -0.267914 -0.394929 0.213561 0.265299 0.323431 -0.208772 -0.27706 -0.181383 0.0439277 -0.258419 0.549368 -0.460711 0.0775903 0.310684 -0.301702 0.0939267 0.0544036 0.166067
索多瑪 0.718747 0.242681 -0.18987 -0.261055 -0.661654 -0.278542 -0.740139 0.449287 0.725613 0.0970837 -0.173655 0.401517 -0.170129 0.358866 -0.136359 0.237765 0.116237 -0.0816621 -0.406364 0.558661 0.161658 -0.0115033 0.241746 0.0253843 -0.508143 0.235889 -0.242704 0.879809 -0.70032 0.120907 0.285355 0.309977 -0.0735753 0.329643 -0.196691 0.415936 -0.108985 -0.117564 0.60756 -0.0521163 -1.00421 -0.358375 0.212675 0.697081 -0.269696 -0.0194362 -0.10304 0.424416 0.46843 -0.327912 0.0992949 -0.49393 -0.230554 -0.162841 -0.556748 -0.00730488 0.116823 0.442846 -0.307747 -0.540066 -0.209387 -0.25125 0.442384 -0.0154468 0.221618 0.141618 -0.407642 -0.179585 0.776917 0.0649475 0.410354 0.309071 -0.572008 0.198187 -0.0952676 -0.766352 -0.148485 0.334572 -0.191387 0.132163 0.127329 0.0995175 -0.112617 -0.245152 -0.592883 0.59372 -0.270728 0.702138 -0.334934 -0.164647 -0.395011 -0.231601 0.281456 0.621597 0.286261 -0.285022 0.440837 -0.434378 -0.190674 -0.310802 -0.161303 0.181072 0.263674 0.12017 -0.602737 0.5273 0.255099 -0.308778 0.574112 0.362275 -0.499967 0.458056 0.445033 -0.386977 0.174855 0.485186 0.127697 -0.129583 0.136525 0.266759 -0.12593 -0.0479329 -0.089921 0.224655 0.631631 0.367738 -0.877199 -0.318876 -0.180107 0.176912 -0.56024 0.575423 0.373362 -0.0418061 0.106994 -0.0505242 0.496678 -0.00742234 0.328512 -0.11719 0.38872 -0.197903 0.189868 0.185519 0.134628 0.0487837 0.0406807 0.0980475 -0.367392 -0.220169
耳朵 -0.922032 -0.132122 1.01119 0.102385 0.142543 0.609603 -1.37809 -0.123256 -0.274642 0.206771 0.535333 0.312553 0.297508 -0.527606 0.0426657 0.742145 -0.37389 0.324369 0.456528 0.387723 0.301749 -0.147157 0.334961 -0.322123 0.316797 0.476265 -0.232112 0.325234 0.552813 0.0391599 -0.201323 0.0582096 -0.270411 -0.241352 0.217223 0.0890726 0.576534 0.127302 0.34141 0.174657 0.350603 0.644886 0.731911 -0.0749705 -0.246089 -0.298332 -0.26418 0.270195 -0.0923023 -0.11936 0.440843 -0.20579 0.395712 0.0436555 0.110246 0.150224 0.715926 0.0187596 -0.410369 0.586013 0.296363 0.0849806 -0.229534 -0.649867 0.379882 0.619168 -0.341758 -0.0441753 -0.185766 -0.658392 -0.0318014 0.298843 0.122602 0.341623 0.464504 -0.00665095 0.240943 -0.274829 0.456453 -0.0947898 0.12313 -0.19498 -0.19982 -0.128716 1.0326 0.0477167 -0.047789 0.257519 -0.593942 -0.181608 0.800878 -0.197011 0.84984 -0.188127 0.285329 -0.366602 0.510337 -0.265936 -0.154407 0.0625401 0.25776 -0.269628 -0.118987 0.19724 0.408949 -0.0480529 0.837013 -0.652967 0.21154 0.768098 0.407676 0.0137627 0.23684 -0.29915 0.0456499 -0.355695 -0.352623 0.976702 0.438192 -0.191506 -0.256498 -0.345201 -0.933217 -0.310468 -0.48664 0.0457508 -0.230232 -0.375756 0.0021803 -0.313015 0.432891 0.195751 0.193001 -0.267925 0.0814472 -0.445857 -0.372804 -0.394178 0.185958 0.813457 0.00866452 0.527439 0.0777441 0.334468 0.159465 -0.210834 -0.364451 0.388601 0.185009 -0.448739
餓 0.0572267 0.945004 0.334683 0.219234 -1.14689 0.273311 0.540878 -0.0996765 -0.64791 -0.117808 -0.662299 0.768081 -0.0835908 -0.442481 -0.913302 -0.0831466 0.48141 0.138372 0.678102 0.0598268 0.619031 -0.51946 -0.282829 0.257756 0.248615 0.624129 -0.843988 0.175927 -0.27365 -0.0493299 -0.696504 0.685665 -0.993251 -0.251196 0.325678 0.698895 0.0547489 -0.587272 0.1461 0.770025 -0.306002 -0.4822 0.573192 -0.713993 -0.561708 -0.320317 -0.182526 0.319933 0.0119199 0.676382 -0.997715 -0.151497 -0.56043 -0.434986 0.513729 0.146951 -0.210988 0.34222 0.154466 -0.240488 -0.574635 0.798169 0.230911 -0.0334602 0.334587 0.455045 -0.381865 0.444544 0.372952 0.520861 0.155264 0.173115 0.641891 -0.0372259 0.345941 0.302941 -0.20357 -0.330112 -0.197329 -0.000930347 -0.811764 -0.374398 0.104513 -0.377407 0.240151 -0.144933 0.4224 0.181402 -0.125533 -0.349737 0.321593 -0.277066 0.518147 0.184626 0.498925 -0.500771 0.667532 -0.140095 -0.431618 0.73305 0.385009 -0.349074 -0.423641 0.178856 -0.858184 -0.205513 0.343788 -0.0301763 -0.494058 -0.189083 0.292993 -0.685304 0.662091 -0.657759 -0.109897 -0.261817 0.152005 -0.456036 0.140136 -0.319469 -0.846288 -0.435658 -0.470182 0.0693457 -0.640087 -0.430886 0.748688 -0.310787 0.341165 -0.83728 0.0452915 0.494926 0.139611 -0.0899629 -0.802072 -1.04843 -0.277116 -0.0566889 -0.059933 -0.275731 -0.339918 -0.0859141 0.126958 -0.389171 -0.137452 -0.259288 0.713614 -0.26644 -0.0758608 0.181382
地震 0.403151 0.248228 -0.220576 0.0951957 -0.420443 0.145832 0.429514 -0.0828363 -0.329547 -0.0314609 -0.128569 -0.451318 -0.259664 -0.0209931 -0.203913 -0.223482 0.525706 -0.0135001 -0.387142 0.255118 0.0782513 0.344789 -0.316827 -0.158864 0.116072 -0.68273 -0.975196 -0.890575 0.266763 -0.180173 -0.449007 -0.401866 -0.233743 0.152181 -0.0122471 -0.422809 -0.166509 0.115174 -0.621991 -0.348718 0.242389 0.3327 -0.736528 0.621143 -0.315305 0.0787762 -0.593422 -0.0021362 -0.170146 -0.0993134 -0.565315 -0.526862 -0.449354 0.311296 0.285866 0.272889 0.616606 0.356381 -0.0882969 -0.895948 -0.268859 0.106603 -0.294927 -0.126399 0.220053 0.184966 0.657191 0.224264 -0.328535 0.174482 -0.625888 -0.310781 0.034765 0.0134547 -0.0339993 0.817112 -0.255841 0.263704 -0.410935 -0.0263461 -1.26272 0.0457876 -0.71501 -0.05307 0.54012 -0.850803 0.182354 -0.308707 0.199663 0.49598 0.0629128 0.835305 0.135032 -1.353 -0.261347 0.253804 -0.781089 0.173493 -1.54542 0.275327 0.746981 -0.0704687 -0.684134 0.515206 0.49429 0.737555 0.801146 0.411354 0.42994 0.0588554 0.509605 -0.369067 0.669322 -0.80426 0.215665 -0.0794545 -0.232991 -0.139037 0.505041 -0.49141 0.106321 0.0858471 0.134285 -0.240665 -0.197214 -0.530214 0.0421087 -0.12267 -0.253117 -0.577004 0.468589 -0.654393 1.15483 1.19882 0.30285 -0.38184 0.0840942 0.125939 -0.328784 -0.0531942 0.610864 0.212593 0.108576 0.989162 -0.0745906 -0.183352 -0.929182 -0.285674 0.222971 -0.657371
獨立 0.393 -0.74034 -1.15166 0.443658 1.10998 -0.165229 0.0718851 -0.714755 0.0747059 -0.919609 -0.380971 0.442187 -0.0344083 0.192101 -0.64475 -0.266585 0.145496 -0.0279673 -0.718764 -0.505879 -0.24491 -0.176696 -0.662427 -0.396583 1.00818 -0.433231 0.0452904 -0.630569 0.308335 -0.307963 -0.509824 0.0139117 0.170338 -0.712037 0.463816 -0.189676 0.333719 -0.253453 -0.124645 0.00864053 0.334248 -0.580721 0.11302 -0.447022 -0.519112 0.178528 0.144307 -0.584564 -0.336084 0.753936 -0.644126 0.367407 0.290487 -0.122717 0.330309 -0.356342 0.510712 -0.0757933 -0.679223 -0.175973 -0.28531 -0.262165 0.144397 -0.259707 -0.350564 -0.176976 -0.257886 0.0135564 0.0931842 -0.0865243 -0.133102 0.126422 0.588952 -0.0428283 0.0850528 0.356444 0.817234 -0.14434 -0.684496 0.274907 0.246328 -0.151682 0.327547 -0.264896 -0.354193 -0.00206672 0.036142 0.457038 0.522449 -0.0604181 0.751255 -0.015634 0.346525 0.11345 -0.799478 0.768728 -0.064414 -0.0805137 0.431481 -0.411698 0.525145 -0.517975 0.953605 0.716693 -0.0625704 0.307592 0.404191 0.38154 0.40837 -0.527108 0.23878 -0.203089 -0.399037 0.125673 0.169067 -1.06847 0.439102 -0.293615 0.325455 -0.294278 0.197269 0.158177 -0.700245 0.553232 -0.395887 -0.733184 -1.08506 0.30101 0.460774 -0.0653393 -0.141451 -0.393713 -0.4416 0.0787892 0.101169 -1.02899 0.146748 0.681284 -0.951696 0.572997 0.0470245 0.812227 0.289095 -0.216465 -0.641691 -0.718318 0.0737854 -0.0529628 -0.157834 -0.138217
左 0.746707 0.278479 0.659223 -0.948218 0.395059 -0.0636851 -0.50279 -0.228171 0.636189 0.0516494 -0.00459924 -0.202925 0.577147 -1.13146 -0.0258625 0.352901 -0.00860108 -0.137362 0.71912 -0.360697 0.507136 0.260814 -0.122542 -0.335659 0.182621 -0.571934 0.571282 0.126908 0.0812287 0.851339 -0.652536 -0.187111 0.0563335 -0.420666 0.381765 0.184534 -0.583618 -0.495938 0.854675 0.482709 0.613558 -0.483064 1.13495 0.573757 -0.412062 -0.544598 -0.0033456 -0.235981 -0.934918 0.522854 0.155198 0.24943 -0.988236 0.156993 0.525336 0.468466 -0.0760729 -0.217057 -0.293203 0.0916409 -0.270514 0.66013 -0.110731 0.453329 -0.754573 0.322685 -0.211375 -0.18748 -0.0149899 -0.723021 0.416421 0.223925 -0.569738 0.734783 -0.11432 0.809545 0.182957 0.199807 0.046835 -0.111701 -0.272597 -0.441501 0.258655 0.238853 -0.498379 0.424957 0.67811 0.309942 -0.378579 0.846848 0.519078 -1.03681 -0.170201 0.306954 0.375896 0.556907 -0.567991 0.711288 -0.463042 -0.733597 0.356869 0.331489 0.128764 -0.143719 0.108196 -0.255466 0.706366 -0.290363 -0.583774 1.12307 0.131227 -0.580547 0.324431 0.147692 0.476165 -0.216044 0.356882 0.41103 -0.291891 0.300162 -0.0912823 0.334859 -0.187566 -0.250489 -0.405878 -0.58155 -0.418583 -0.51452 0.101195 -0.459656 0.610903 -0.541549 -0.531563 0.618012 -0.18885 -0.286974 -0.233664 0.448073 -0.0802972 -0.0299206 0.412104 0.318689 1.18814 0.35414 0.547122 0.697771 0.439144 -0.229013 -0.199649 0.193408
連戰 0.106231 -0.0946135 0.235448 0.280794 0.313887 -0.0212943 0.347554 0.164019 -0.0284319 0.513621 0.0204264 -0.284705 0.142228 -0.514692 0.185513 0.334453 -0.398716 0.00299888 -0.188963 0.3657 -0.211481 -0.321789 0.152372 0.146211 0.176263 0.515929 -0.464293 0.113554 -0.0443166 -0.381456 -0.0568877 -0.0877781 -0.405951 -0.213908 -0.159184 -0.198083 0.285312 -0.520787 0.0527297 0.0990038 0.627252 0.410767 -0.748675 -0.436592 -0.485449 -0.11272 0.27664 0.560917 -1.02419 0.865891 0.0836965 -0.129955 0.263617 0.116837 0.554288 0.404537 0.286892 0.532906 0.0179636 0.374427 -0.679622 0.589273 0.382033 -0.224892 0.266912 -0.847833 -0.108115 -0.653051 -0.0396654 0.602777 -0.320417 0.205521 -0.491686 0.802792 0.411774 -0.0903406 -0.322169 -0.487902 -0.0987192 0.346081 0.00386242 0.131809 0.580199 -0.450789 0.620175 0.123037 0.312242 0.379005 -0.159653 -0.448349 -0.122066 -0.204377 -0.354048 -0.378773 -0.0900269 0.0168917 -0.133651 0.409008 -0.171113 0.284428 0.24737 -1.14193 0.377493 0.560216 0.612904 0.0380819 0.606917 -0.128822 -0.146407 -0.217165 -0.0926648 0.296342 -0.0818533 0.510634 -0.832089 -0.503495 -0.278294 0.61454 0.0250858 0.158154 0.108065 0.813004 0.389553 -0.0106699 0.395238 0.274128 -0.141274 -0.865154 0.43171 0.571246 0.0578481 0.588253 0.250639 0.368254 0.240512 -0.792718 -0.336249 -0.0281852 -0.231307 0.827691 0.0317522 0.330645 -0.354309 -0.495228 0.423214 -0.790372 -0.207211 0.125183 -0.129327 -0.412777
青峰 -0.127789 -0.302136 -0.113508 0.18841 -0.158295 -0.0667263 -0.0945509 0.511186 -0.395585 0.100629 0.18895 -0.359838 -0.415708 0.205048 0.0596262 0.289049 -0.154091 -0.0020889 -0.140022 -0.0148427 0.243907 -0.167008 0.0784349 -0.121049 -0.386193 0.35364 -0.0608955 -0.13373 -0.303598 -0.321201 0.138297 0.63148 0.00219363 0.297589 -0.0815307 0.261401 0.409022 -0.125671 0.00823753 -0.0563799 0.632179 0.132009 0.144645 0.476179 -0.247936 0.297691 0.0679727 0.00888585 -0.115306 -0.585347 0.0183155 0.162802 -0.0476528 0.290094 -0.44541 -0.109062 -0.000911519 0.594646 0.238722 -0.0991943 0.3749 -0.639577 0.208173 -0.541616 0.244924 0.242963 0.161528 -0.131082 0.204517 -0.145225 0.124152 -0.385065 0.179146 0.147919 -0.239522 -0.138705 -0.471717 0.494711 0.123038 0.444906 -0.114152 0.232401 -0.201661 -0.113807 0.410514 -0.395011 0.497604 0.435416 0.0614243 -0.293999 -0.352122 -0.282018 -0.000912338 0.0937986 -0.395623 0.168511 0.393873 -0.600222 -0.582441 0.0352583 -0.161312 -0.43434 -0.355959 -0.510283 0.313722 0.0833687 0.177779 -0.395072 -0.280868 -0.248515 -0.510133 0.577944 0.316704 0.512342 -0.231185 0.177824 -0.292283 0.381907 0.392375 -0.214733 0.3304 -0.0208414 -0.173399 -0.0386959 0.00676841 0.314097 -0.213093 -0.0188665 0.009726 0.214583 -0.394979 -0.363693 0.318062 -0.24934 0.0855005 -0.35867 0.154523 0.234747 0.435977 0.544128 0.171964 0.219614 0.193189 -0.289414 -0.0288533 0.330574 -0.0608337 -0.0977634 -0.350312 -0.336438
電腦 -0.0808144 -0.252166 -0.30366 0.5346 -0.022422 0.766491 0.742881 0.266293 -0.545355 0.470948 -0.181357 0.70283 -0.116085 -0.903214 -0.111193 -0.654982 -0.938742 0.380561 0.29684 -0.524564 0.113698 0.00678289 0.408784 -0.717436 0.906129 -0.52301 -0.0832729 -0.34445 0.44489 -0.244332 0.173631 0.175219 0.492482 -0.760534 0.0575605 0.069671 0.379059 -0.101154 0.144186 0.0602241 0.0232689 -0.275823 -0.0151422 -0.102873 -0.116289 -0.0626184 -0.985145 0.129302 -0.385439 0.36308 -0.741529 0.0837933 -0.84849 -0.296105 -0.966227 -0.346157 -0.293409 -0.634277 -0.382786 0.280771 -0.399777 0.873942 0.177317 -0.150235 0.455304 0.924425 -1.11668 0.0795301 -0.4475 -0.334709 0.588133 0.151755 0.681463 -0.197019 0.816424 -0.262765 -0.393956 0.44117 -1.31103 0.144131 -0.474057 -0.33616 0.636687 -0.277345 0.290946 -0.192862 0.454141 0.711828 0.130276 -0.118349 0.623921 0.13166 0.993049 -0.265972 0.266954 -0.0405047 -0.355408 -1.13169 0.483031 0.446102 0.286908 -0.319366 -0.650539 0.836352 -0.59123 0.373716 0.430523 -0.551513 -0.54302 -0.446206 0.463175 -0.227844 0.12644 0.42675 0.101489 -0.443173 0.408521 -0.134129 0.581678 0.633918 0.497474 -0.355397 0.708044 -0.798146 0.00754844 -0.760359 -0.69339 0.00333813 0.245853 -0.417111 0.00988066 -0.265823 0.479718 0.0878862 0.0237724 0.261973 0.360889 0.0982394 0.9903 -0.33538 -0.148063 -0.128639 -0.642007 -0.533421 -0.0465814 0.0559809 -0.440566 0.0446422 0.00715547 0.4949
資工 -0.130198 -1.00569 -0.26456 0.362741 0.795482 -0.185864 -0.146202 -0.523698 -0.038191 0.317284 0.270097 -0.128999 0.116625 0.0136659 -0.0800225 0.333807 0.425977 0.261034 -0.114367 -0.0680864 0.607272 -0.430306 0.47687 -0.0270911 -0.000464108 0.641036 -0.625778 0.084591 0.179916 0.231681 -0.552295 -0.255818 0.254942 -0.238299 0.0791197 -0.6599 0.248296 0.573777 -0.839497 0.554913 -0.241358 0.220229 0.217127 -0.289654 0.92771 0.479607 -0.00446989 0.203847 0.0833344 -0.178147 -0.800429 0.723738 -0.164914 -0.689184 -0.527517 -0.323345 -0.488422 0.129073 -0.559156 0.299968 0.409591 0.658333 0.258873 0.149129 -0.0881832 0.514999 -0.3579 -0.57041 0.0166774 -0.0361063 0.204578 0.778394 0.0412389 0.077505 -0.0507258 0.411858 -0.157105 -0.188081 -0.116466 0.0135303 0.674308 -0.648848 0.437477 0.445033 0.483636 -0.278888 0.0441989 -0.156011 -0.372037 0.602485 -0.122791 0.308683 -0.0810738 0.253845 -0.00566742 0.22838 -0.322458 -0.236474 -0.389281 0.253693 0.0839819 0.450767 -0.176976 -0.319003 -0.0716875 0.701932 0.343422 0.344137 -0.400335 -0.352825 0.0528139 -0.711895 0.848629 0.408507 -0.404302 0.384164 0.0909945 0.625568 0.0786318 0.442353 0.0513512 -0.00730313 -0.525526 -0.39419 0.429844 0.22558 0.461073 0.532373 -0.299816 0.452493 -0.250821 0.0338392 0.426716 -0.232526 0.14452 0.114951 0.641233 -0.527977 -0.0573779 -0.165713 0.148876 -0.133905 -0.186074 -0.199981 0.216595 0.669461 0.218936 0.3313 -0.172483 -0.132273
豆漿 0.18171 0.454135 -0.749189 -0.112855 -0.858325 -0.827336 -0.918972 -0.195538 -0.0260029 0.490092 0.653262 0.526715 -1.04697 0.579538 -0.0697676 0.136069 0.485012 0.720759 0.33548 0.312364 0.200259 -0.396356 -0.579009 -0.310181 0.038894 -0.24263 0.39236 0.725721 -0.229407 -0.0530536 0.100483 -0.265971 0.277605 -0.0342428 0.376739 0.597914 0.191894 0.105127 -0.286834 0.834463 -0.669208 -0.41945 -0.546695 -0.842372 -0.378475 -0.82188 -0.567626 -0.298888 -0.526575 0.00850002 -0.790722 0.52375 -0.530198 -0.343734 -0.427078 0.323756 0.220302 -0.0402901 -0.328716 -0.472405 -0.159465 0.304558 -0.125895 -0.0785477 0.00989833 0.230871 -0.644109 -0.481352 -0.61653 -0.240195 -0.615622 0.371502 -0.0709553 -0.110496 0.00904123 0.468082 -0.57386 0.499351 -0.206458 0.00417133 0.302691 0.00207414 -0.777201 0.347603 -0.185234 0.0568515 -0.54876 0.549066 -0.250372 0.198086 0.366448 -0.546251 0.646463 -0.455965 0.704651 -0.351282 -0.0462611 -0.583622 0.00301735 -0.752894 -0.167637 0.252456 0.209491 0.328308 -0.763536 0.706833 -0.770158 -0.456881 -0.209269 -0.266986 0.242209 -0.024626 0.218627 -0.483386 -0.76427 -0.392375 -0.41542 1.27709 -1.00327 -0.0321008 0.485965 -0.12039 1.28179 -0.36308 -0.13269 0.239832 0.700374 0.519507 -0.0404579 -0.368938 0.0312347 0.383619 -0.57647 -0.138069 -0.0678307 0.124911 0.846035 0.660113 -0.552489 0.98187 -0.34818 0.666622 0.136299 0.579734 0.0164112 -0.284428 -0.282259 0.447441 -0.4338 0.346487
盤子 -0.00489917 0.323032 0.0862397 -1.37065 -0.0172665 0.239962 0.386017 0.031351 0.18403 -0.464793 -0.759111 -0.609641 0.495138 -0.334804 0.00788482 0.335529 -0.0808054 0.0205234 -0.277271 0.137837 0.0433409 -0.419856 -0.745777 -0.398232 0.263523 -0.276495 0.12396 0.732064 0.0754855 0.0498202 0.0132789 -0.160674 -0.516247 0.064022 0.547431 -0.265884 -0.51203 -0.151496 0.0207994 -0.61952 -0.0566424 0.133474 1.19139 0.100308 0.286105 -0.652842 0.150888 -0.393464 -0.378129 -0.228927 -0.29398 0.319153 0.139251 -0.35208 -0.140846 -0.112685 0.472567 0.115843 0.257449 0.661634 -0.478956 -0.103899 0.0674897 -0.416334 0.455509 0.235019 0.0606472 -0.231354 -1.05359 -0.813193 0.496452 0.263349 0.598816 -0.395512 0.520347 0.28994 0.124628 0.216096 -0.280742 -0.440125 -0.902732 -0.479392 -0.160252 -0.461774 0.480945 -0.6007 -0.0370955 0.279965 -0.726565 -0.0134336 0.330343 -0.371847 0.626539 -0.304959 -0.531745 0.462625 0.250013 -0.088875 0.573393 0.211137 0.0391994 0.109716 -0.878952 0.596739 -0.0487117 0.608277 -0.0741736 -0.236617 0.184968 -0.290458 -0.378074 0.306146 0.373687 -0.333084 -0.228479 -0.00496151 0.482857 -0.14555 0.14854 -0.118273 -0.298421 -0.768195 0.356722 -0.791557 -0.367983 0.327436 -0.418336 0.524169 0.0254987 0.0158868 0.388844 -0.363143 -0.271618 -0.182507 -0.232116 -0.0630482 0.365026 0.742221 0.193744 -0.193378 -0.483055 -0.299477 0.498798 0.213473 -0.177708 -0.00362694 -0.224578 -0.162736 -0.244694 -0.344959
巴西 -0.632291 -0.705961 -0.221061 -0.719192 0.0731879 -0.221882 0.340979 0.724297 -0.360644 -0.0393211 0.115423 -1.15013 -0.243035 -0.0894468 -0.634912 0.452508 0.339009 0.0800205 -0.161666 0.274745 -0.811143 0.133969 -0.852882 -0.503612 -0.430143 -0.348951 0.173281 -0.74233 0.3186 -0.283349 -0.424612 0.385992 -0.341222 0.138703 0.135549 -0.0680825 0.251289 -0.571581 0.150956 0.0802908 -0.295924 -0.0984861 -0.437544 -0.248588 0.244118 0.126776 -0.174077 -0.383473 -0.56392 -0.155053 -0.31365 0.519035 -0.200881 -0.242605 -0.0147094 0.245177 0.489357 0.299819 -0.456699 0.257665 -0.117879 0.0132366 0.145497 -0.396418 -0.323623 -0.497914 -0.263277 0.379508 -0.211632 0.388835 -0.199964 -0.361861 -0.797413 0.324431 0.475288 0.484926 -0.412055 0.819471 0.441447 1.08086 0.538403 -0.137195 -0.362025 -0.00465221 0.503808 -0.296126 0.850556 0.36251 -0.601898 0.069388 -0.256595 0.780077 0.484995 -0.0824962 -0.373845 0.748572 -1.16463 -0.229138 0.476096 -0.460632 0.19577 0.425068 0.30209 0.406616 -0.0964574 -0.0265982 0.274219 -0.309654 -0.00741869 -0.21429 0.703997 -0.721354 -0.209632 0.142983 -0.675673 -0.739876 -0.434853 -0.159158 0.962501 0.721165 0.422094 0.0882876 -0.61819 0.505675 0.00505652 -0.719829 -0.616641 0.58438 0.201732 0.640738 0.319246 0.0503568 -0.387833 -0.223223 0.194849 -0.332475 -0.250126 -0.373925 -0.549719 0.125897 -0.243475 -0.0866894 1.02478 -0.0869006 0.328272 -0.522486 -0.31002 -0.803918 0.334831 -0.0425666
